tree
version=v4
num_class=1
num_tree_per_iteration=1
label_index=0
max_feature_idx=179
objective=binary sigmoid:1
feature_names=Name Age City Profession Work/Study_Hours Financial_Stress Pressure Study/Job_Satisfaction Gender_Female Gender_Male Working_Professional_or_Student_Student Working_Professional_or_Student_Working_Professional Sleep_Duration_1-2_hours Sleep_Duration_1-3_hours Sleep_Duration_1-6_hours Sleep_Duration_10-11_hours Sleep_Duration_10-6_hours Sleep_Duration_2-3_hours Sleep_Duration_3-4_hours Sleep_Duration_3-6_hours Sleep_Duration_35-36_hours Sleep_Duration_4-5_hours Sleep_Duration_4-6_hours Sleep_Duration_40-45_hours Sleep_Duration_45-48_hours Sleep_Duration_49_hours Sleep_Duration_5-6_hours Sleep_Duration_55-66_hours Sleep_Duration_6-7_hours Sleep_Duration_6-8_hours Sleep_Duration_7-8_hours Sleep_Duration_8_hours Sleep_Duration_8-9_hours Sleep_Duration_9-11_hours Sleep_Duration_9-5_hours Sleep_Duration_9-6_hours Sleep_Duration_Less_than_5_hours Sleep_Duration_More_than_8_hours Sleep_Duration_Not_stated Sleep_Duration_than_5_hours Dietary_Habits_Healthy Dietary_Habits_Hormonal Dietary_Habits_Less_than_Healthy Dietary_Habits_Moderate Dietary_Habits_More_Healthy Dietary_Habits_No_Healthy Dietary_Habits_Not_stated Dietary_Habits_Unhealthy Degree_0 Degree_20 Degree_24 Degree_29 Degree_5.56 Degree_5.61 Degree_5.88 Degree_7.06 Degree_8.56 Degree_ACA Degree_Aarav Degree_Advait Degree_B Degree_B_B.Com Degree_B_BA Degree_B.03 Degree_B.3.79 Degree_B.A Degree_B.Arch Degree_B.B.Arch Degree_B.Com Degree_B.Ed Degree_B.Pharm Degree_B.Sc Degree_B.Student Degree_B.Tech Degree_BBA Degree_BCA Degree_BE Degree_BH Degree_BHM Degree_BPA Degree_Badhya Degree_Bhavesh Degree_Bhopal Degree_Brit Degree_Brithika Degree_Business_Analyst Degree_CGPA Degree_Class_11 Degree_Class_12 Degree_Data_Scientist Degree_Degree Degree_Doctor Degree_E.Tech Degree_Entrepreneur Degree_Esha Degree_HCA Degree_HR_Manager Degree_H_Pharm Degree_Jhanvi Degree_K.Ed Degree_Kalyan Degree_L.Ed Degree_LCA Degree_LHM Degree_LL_B.Ed Degree_LLB Degree_LLBA Degree_LLEd Degree_LLM Degree_LLS Degree_LLTech Degree_Lata Degree_M Degree_M._Business_Analyst Degree_M.Arch Degree_M.Com Degree_M.Ed Degree_M.Pharm Degree_M.S Degree_M.Sc Degree_M.Tech Degree_MA Degree_MBA Degree_MBBS Degree_MCA Degree_MD Degree_ME Degree_MHM Degree_MPA Degree_Mahika Degree_Marsh Degree_Mihir Degree_Mthanya Degree_N.Pharm Degree_Nalini Degree_Navya Degree_P.Com Degree_P.Pharm Degree_PhD Degree_Pihu Degree_Plumber Degree_RCA Degree_Ritik Degree_S.Arch Degree_S.Pharm Degree_S.Tech Degree_UX/UI_Designer Degree_Unite Degree_Veda Degree_Vivaan Degree_Vrinda Degree_Working_Professional Have_you_ever_had_suicidal_thoughts_?_No Have_you_ever_had_suicidal_thoughts_?_Yes Family_History_of_Mental_Illness_No Family_History_of_Mental_Illness_Yes Age_group_adult Age_group_elder Age_group_middle_aged Field_of_Study_Architecture Field_of_Study_Arts Field_of_Study_Business_Administration Field_of_Study_Commerce Field_of_Study_Computer_Application Field_of_Study_Education Field_of_Study_Engineering Field_of_Study_General Field_of_Study_Hospitality Field_of_Study_Law Field_of_Study_Medicine Field_of_Study_Not_Stated Field_of_Study_Pharmacy Field_of_Study_Science Field_of_Study_Specialist Field_of_Study_Technology Qualification_Bachelor Qualification_High_School Qualification_Masters Qualification_Not_Stated Qualification_PhD
feature_infos=[0:421] [18:60] [0:97] [0:64] [0:12] [1:5] [1:5] [1:5] [0:1] [0:1] [0:1] [0:1] none none none none none none none none none none none none none none [0:1] none none none [0:1] none none none none none [0:1] [0:1] none none [0:1] none none [0:1] none none none [0:1] none none none none none none none none none none none none none none none none none [0:1] [0:1] none [0:1] [0:1] [0:1] [0:1] none [0:1] [0:1] [0:1] [0:1] none [0:1] none none none none none none none none none [0:1] none none none none none none none none none none none none none none none none [0:1] none none [0:1] none none none none none none [0:1] [0:1] [0:1] none [0:1] [0:1] [0:1] [0:1] [0:1] [0:1] [0:1] [0:1] [0:1] none none none none none none none none none none [0:1] none none none none none none none none none none none none none [0:1] [0:1] [0:1] [0:1] [0:1] [0:1] [0:1] [0:1] [0:1] [0:1] [0:1] [0:1] [0:1] [0:1] [0:1] [0:1] [0:1] [0:1] [0:1] [0:1] [0:1] [0:1] [0:1] [0:1] [0:1] [0:1] [0:1] [0:1]
tree_sizes=984 1007 996 1004 1011 896 997 895 1011 1014 1004 990 897 1002 997 1005 998 1017 1004 995 1011 1007 1011 996 1004 1004 1018 994 991 1007 1007 1001 1001 1011 1001 1022 979 996 993 998 1009 994 1006 990 1007 1010 1004 1015 1006 1013 1015 1005 999 1002 1010 1012 1001 1025 1013 998 976 1008 1014 1015 999 1001 986 1013 1002 1003 1003 1007 1006 1012 991 1002 1015 1027 1002 973 1006 1004 911 1005 1014 994 981 863 993 1007 1009 1026 996 986 992 1015 1011 1009 1010 1019 1007 1003 892 990 1005 1009 1012 1031 960 899 1009 996 1012 994 1006 1006 1001 1007 982 1010 1009 1003 897 1019 1019 1006 1009 1009 1008 1003 1010 1025 1009 1004 1016 1015 1007 904 1018 989 1028 1025 1011 1008 1006 1014 1019 978 1002 899 996 1000 900 993 1010 1005 1016 998 1010 1006 1006 1014 996 1008 1012 1003 998 1009 972 998 1014 880 1009 979 1008 1012 992 999 903 992 982 1013 991 997 1007 1018 977 991 1013 982 988 1008 995 994 1014 991 891 1001 1015 997 1022 1009 1009 1007 1005 982 998 999 998 1004 1007 996 993 976 1007 999 1015 983 994 1008 985 893 984 982 1009 1005 998 983 975 976 979 1007 993 982 958 1005 1002 968 1011 1002 1002 990 976 990 1004 993 995 999 994 904 968 976 985 995 1006 1000 894 897 961 912 980 998 987 760 1004 870 899 1005 972 999 1003 795 891 994 994 998 1000 1006 982 1013 1001 1002 997 1016 1005 977 1008 997 995 985 999 892 1001 1001 896 964 995 1001 900 996 882 974 994 885 998 995 901 898 895 984 1006 979 790 999 996 962 903 956 1000 1014 904 912 998 978 998 797 994 992 1017 1008 1012 769 992 976 971 1000 914 1006 473 907 894 896 982 1001 1010 967 767 883 999 999 1005 993 999 997 981 979 894 792 993 975 996 895 995 472 1001 702 792 997 990 889 899 1002 1015 771 680 995 896 868 994 891 894 997 688 789 683 891 867 477 890 798 688 899 1011 1004 890 990 904 979 985 999 686 687 1003 906 789 789 466 572 988 988 961 876 972 880 899 903 591 682 472 975 997 1000 870 890 665 997 898 998 1011 1005 978 1006 999 998 991 1007 898 1008 903 900 896 900 691 791 981 993 789 875 909 996 998 977 903 1010 903 896 900 1008 1005 1008 990 1011 883 1004 786 661 882 790 895 899 899 905 645 858 998 995 901 788 1001 1011 896 793 686 1002 901 981 1010 696 681 361 967 979 896 901 999 1000 982 1015 891 1005 794 997 990 901 892 999 899 589 469 976 883 1011 591 578 897 901 898 578 889 684 690 685 894 894 687 1002 804 760 994 796 1008 1003 779 474 954 898 985 980 890 894 979 795 988 911 990 800 1008 1007 1013 689 1018 896 983 886 1002 895 1002 990 909 798 1007 776 907 1016 901 585 1004 1004 1014 1009 897 1007 990 979 793 897 1008 792 688 991 976 1008 980 679 680 789 900 1003 998 981 895 888 899 999 900 1006 1000 978 1003 1000 899 912 1002 898 899 577 879 853 980 878 995 990 994 973 367 980 1007 588 953 983 976 1004 1002 576 1000 1004 876 671 697 359 784 894 869 665 790 575 690 662 1005 1008 999 884 1006 1013 996 676 584 364 1010 996 685 786 684 360 586 979 1000 996 959 1005 448 999 994 681 572 364 917 359 854 871 1003 1008 803 1000 985 787 890 1009 1001 900 990 699 1011 990 686 995 879 857 979 897 363 477 995 873 566 998 788 880 586 364 894 900 916 793 1001 982 980 983 1003 999 999 981 889 899 1004 470 903 885 798 985 869 359 1014 896 892 980 803 991 694 581 682 580 1000 1009 1001 793 899 900 982 996 865 475 586 691 752 760 477 798 673 959 903 899 984 1009 683 695 1000 897 892 883 800 983 469 796 575 575 578 1000 867 770 675 472 366 366 1008 771 902 793 862 978 1003 893 895 855 994 905 585 890 579 782 572 365 789 676 477 585 817 698 999 886 790 1001 580 365 467 567 896 1006 790 1000 995 1010 999 1004 684 790 798 675 895 902 794 902 588 587 772 772 902 996 1004 994 672 573 756 576 793 1013 881 905 677 676 900 1010 1005 770 960 892 1012 1007 867 1000 690 363 908 786 1012 880 953 1001 878 773 1005 796 886 800 903 466 894 898 663 1003 986 968 903 698 473 905 998 1002 797 896 875 1003 701 885 898 788 908 685 576 762 793 790 778 589 904 900 985 788 888 1010 365 469 688 473 894 893 896 699 879 578 888 988 899 893 894 1005 980 895 988 998 897 1001 1010 787 905 898 682 899 1002 890 994 582 996 577 1011 869 1013 911 981 902 980 899 983 800 360 365 975 578 895 872

Tree=0
num_leaves=8
num_cat=0
split_feature=1 4 47 10 10 1 47
split_gain=36497.3 2207.37 1313.37 696.554 458.146 90.8709 64.4353
threshold=33.500000000000007 5.5000000000000009 1.0000000180025095e-35 1.0000000180025095e-35 1.0000000180025095e-35 43.500000000000007 1.0000000180025095e-35
decision_type=2 2 2 2 2 2 2
left_child=1 3 -3 -1 5 -2 -6
right_child=4 2 -4 -5 6 -7 -8
leaf_value=-1.4445510687631546 -1.6033233995743459 -1.2740852877895861 -1.1368015858710026 -1.3078893467867017 -1.4873448316585041 -1.6246195284790019 -1.343898401307174
leaf_weight=715.048574000597 3274.2714789509773 1904.3686091601849 1217.4106983244419 878.83646187186241 116.970115929842 6804.6287390291691 45.331493467092514
leaf_count=4811 22030 12813 8191 5913 787 45783 305
internal_value=-1.50548 -1.27046 -1.22032 -1.36898 -1.61498 -1.61773 -1.44518
internal_weight=0 4715.66 3121.78 1593.89 10241.2 10078.9 162.302
internal_count=100633 31728 21004 10724 68905 67813 1092
is_linear=0
shrinkage=1


Tree=1
num_leaves=8
num_cat=0
split_feature=11 152 156 152 6 6 152
split_gain=19882.8 8074.73 4684.89 4655.88 1835.35 1075.4 54.2579
threshold=1.0000000180025095e-35 1.0000000180025095e-35 1.0000000180025095e-35 1.0000000180025095e-35 2.5000000000000004 3.5000000000000004 1.0000000180025095e-35
decision_type=2 2 2 2 2 2 2
left_child=1 4 6 -4 -1 -3 -2
right_child=2 5 3 -5 -6 -7 -8
leaf_value=0.16188782608784658 -0.10245496181649388 -0.0513358813252109 0.13335019840534088 -0.089901605449888566 0.38668951661301365 0.162693438102263 -0.12059635841566932
leaf_weight=502.29191398620605 3348.5980319529772 902.62448488175869 2021.5327439457178 1902.6607509553432 1666.9230445176363 336.97044138610363 4281.7626078426838
leaf_count=2922 24301 5305 12845 12624 9614 1961 31061
internal_value=0 0.215725 -0.0658836 0.025088 0.334879 0.00692687 -0.112677
internal_weight=0 3408.81 11554.6 3924.19 2169.21 1239.59 7630.36
internal_count=100633 19802 80831 25469 12536 7266 55362
is_linear=0
shrinkage=0.102489


Tree=2
num_leaves=8
num_cat=0
split_feature=1 152 5 5 10 152 152
split_gain=22431 8172.3 1456.54 600.507 313.136 169.927 135.33
threshold=33.500000000000007 1.0000000180025095e-35 2.5000000000000004 2.5000000000000004 1.0000000180025095e-35 1.0000000180025095e-35 1.0000000180025095e-35
decision_type=2 2 2 2 2 2 2
left_child=1 2 -1 -3 6 -6 -2
right_child=4 3 -4 -5 5 -7 -8
leaf_value=0.14215262157985245 -0.091783861119682925 -0.07260356187691315 0.28122473601542952 0.039378059163706819 0.1237521969399214 -0.071797437323066454 -0.11776131012698279
leaf_weight=1125.2332947999239 3917.2537295371294 951.44179840385914 2749.0709695070982 1061.9080056846142 94.078189492225647 88.390230193734169 4873.4427859336138
leaf_count=5791 29561 5751 13984 6373 510 576 38157
internal_value=0 0.153944 0.240954 -0.0135076 -0.10346 0.0286987 -0.106221
internal_weight=0 5887.65 3874.3 2013.35 8973.16 182.468 8790.7
internal_count=100703 31899 19775 12124 68804 1086 67718
is_linear=0
shrinkage=0.102489


Tree=3
num_leaves=8
num_cat=0
split_feature=1 152 5 5 11 152 152
split_gain=17913.6 5574.59 890.427 537.184 286.125 140.08 132.569
threshold=33.500000000000007 1.0000000180025095e-35 2.5000000000000004 4.5000000000000009 1.0000000180025095e-35 1.0000000180025095e-35 1.0000000180025095e-35
decision_type=2 2 2 2 2 2 2
left_child=1 2 -1 -3 6 -6 -2
right_child=4 3 -4 -5 5 -7 -8
leaf_value=0.11954925406735757 0.10462529073743489 -0.036816399145271558 0.22433113538095448 0.10285728653529694 -0.088117465624297037 -0.11549602978733979 -0.067680514132468533
leaf_weight=1196.8159523904324 99.879370510578156 1648.9410666525364 3072.1769399791956 348.52006785571575 3675.1335746943951 4480.4783287644386 84.489358097314835
leaf_count=5791 510 10091 13984 2033 29561 38157 576
internal_value=0 0.128951 0.195049 -0.0123157 -0.100339 -0.103196 0.0252173
internal_weight=0 6266.45 4268.99 1997.46 8339.98 8155.61 184.369
internal_count=100703 31899 19775 12124 68804 67718 1086
is_linear=0
shrinkage=0.102489


Tree=4
num_leaves=8
num_cat=0
split_feature=1 153 6 6 10 153 153
split_gain=14504.2 3685.93 1306.93 827.005 788.671 332.992 164.646
threshold=32.500000000000007 1.0000000180025095e-35 2.5000000000000004 3.5000000000000004 1.0000000180025095e-35 1.0000000180025095e-35 1.0000000180025095e-35
decision_type=2 2 2 2 2 2 2
left_child=1 3 -3 -1 6 -6 -2
right_child=4 2 -4 -5 5 -7 -8
leaf_value=-0.055753630758740104 -0.11314841663891978 0.063625206522526873 0.20013999671983179 0.088549015208441426 -0.065513236527396504 0.11086394126414074 -0.082752247087304442
leaf_weight=1174.9841867983341 4183.9876843690872 953.88255742192268 3306.3463783562183 644.13930159807205 188.23589333891869 272.00475025177002 3529.7423968613148
leaf_count=7333 38623 4322 14277 3779 1217 1226 29893
internal_value=0 0.117514 0.169642 -0.00455851 -0.0914983 0.0385267 -0.0992778
internal_weight=0 6079.35 4260.23 1819.12 8173.97 460.241 7713.73
internal_count=100670 29711 18599 11112 70959 2443 68516
is_linear=0
shrinkage=0.102489


Tree=5
num_leaves=7
num_cat=0
split_feature=1 152 6 6 152 6
split_gain=12086.1 3300.47 1225.69 715.008 132.008 218.299
threshold=34.500000000000007 1.0000000180025095e-35 2.5000000000000004 3.5000000000000004 1.0000000180025095e-35 4.5000000000000009
decision_type=2 2 2 2 2 2
left_child=1 2 -1 -3 5 -2
right_child=4 3 -4 -5 -6 -7
leaf_value=0.044369501958507918 -0.095383575596182879 -0.059138154720222692 0.16778554756111408 0.065359982060319136 -0.11147038255662234 -0.025685194886162985
leaf_weight=1098.033939704299 2606.3309624418616 1339.7920918166637 3732.5973281413317 756.06203276664019 3734.0683604180813 583.85569193214178
leaf_count=4961 23789 8827 15649 4341 37784 5319
internal_value=0 0.0931975 0.139784 -0.0141569 -0.0982505 -0.0826845
internal_weight=0 6926.49 4830.63 2095.85 6924.26 3190.19
internal_count=100670 33778 20610 13168 66892 29108
is_linear=0
shrinkage=0.102489


Tree=6
num_leaves=8
num_cat=0
split_feature=1 152 6 6 10 152 5
split_gain=10225.3 2448.8 847.692 544.026 202.065 147.353 101.769
threshold=33.500000000000007 1.0000000180025095e-35 2.5000000000000004 3.5000000000000004 1.0000000180025095e-35 1.0000000180025095e-35 3.5000000000000004
decision_type=2 2 2 2 2 2 2
left_child=1 2 -1 -3 5 -2 -6
right_child=4 3 -4 -5 6 -7 -8
leaf_value=0.044941851445651888 -0.078267430602394938 -0.052985052767352138 0.1490547609011014 0.057981039117556192 -0.044958753320294129 -0.109554997973771 0.11011564469579276
leaf_weight=1058.9670755416155 3046.4407640472054 1195.3556201159954 3744.4847336858511 755.41126202046871 115.62615195661783 3454.2300947010517 69.22611915320158
leaf_count=4645 29468 8020 15248 4124 690 38124 373
internal_value=0 0.0868369 0.126152 -0.00994555 -0.091931 -0.094937 0.0131009
internal_weight=0 6754.22 4803.45 1950.77 6685.52 6500.67 184.852
internal_count=100692 32037 19893 12144 68655 67592 1063
is_linear=0
shrinkage=0.102489


Tree=7
num_leaves=7
num_cat=0
split_feature=1 152 1 1 152 1
split_gain=8622.4 2091.51 396.239 291.431 137.178 210.703
threshold=34.500000000000007 1.0000000180025095e-35 25.500000000000004 24.500000000000004 1.0000000180025095e-35 43.500000000000007
decision_type=2 2 2 2 2 2
left_child=1 2 -1 -3 5 -2
right_child=4 3 -4 -5 -6 -7
leaf_value=0.13606371405026316 -0.035227008628964968 0.034616797129287093 0.077656216994120092 -0.044336731032684887 -0.10789269575303881 -0.095583994843621206
leaf_weight=2787.2113065421581 903.00194550305605 815.08934606611729 2210.8263441771269 1226.4552454277873 3127.7556116133928 1918.3900238722563
leaf_count=11423 8567 5053 9325 8037 37748 20539
internal_value=0 0.0745957 0.11029 -0.0127598 -0.0929777 -0.0763419
internal_weight=0 7039.58 4998.04 2041.54 5949.15 2821.39
internal_count=100692 33838 20748 13090 66854 29106
is_linear=0
shrinkage=0.102489


Tree=8
num_leaves=8
num_cat=0
split_feature=158 152 6 10 7 6 152
split_gain=5187.27 2226.73 1196.21 469.82 71.4186 91.7364 20.2576
threshold=1.0000000180025095e-35 1.0000000180025095e-35 3.5000000000000004 1.0000000180025095e-35 1.5000000000000002 4.5000000000000009 1.0000000180025095e-35
decision_type=2 2 2 2 2 2 2
left_child=1 2 -1 -3 5 -2 -6
right_child=4 3 -4 -5 6 -7 -8
leaf_value=0.03201762440817485 -0.083749576296436146 -0.072559491205025042 0.1269062805420606 0.014830748200955073 -0.091724426284837415 0.001067822146043923 -0.10879142042498666
leaf_weight=2708.8853251487017 637.52502351999283 1445.5510672926903 2888.298702172935 1163.2156152948737 1655.3558701127768 166.27639104425907 1839.5371844097972
leaf_count=13322 7941 13424 12967 7278 18926 2007 24452
internal_value=0 0.0445842 0.0810291 -0.0335711 -0.0943672 -0.0661135 -0.100794
internal_weight=0 8205.95 5597.18 2608.77 4298.69 803.801 3494.89
internal_count=100317 46991 26289 20702 53326 9948 43378
is_linear=0
shrinkage=0.102489


Tree=9
num_leaves=8
num_cat=0
split_feature=1 6 152 152 6 152 152
split_gain=6302.09 1633.64 524.851 399.696 163.16 196.213 35.2871
threshold=34.500000000000007 2.5000000000000004 1.0000000180025095e-35 1.0000000180025095e-35 4.5000000000000009 1.0000000180025095e-35 1.0000000180025095e-35
decision_type=2 2 2 2 2 2 2
left_child=1 3 -3 -1 6 -6 -2
right_child=4 2 -4 -5 5 -7 -8
leaf_value=0.019179490343014007 -0.087241834761722661 0.11030876328766082 0.032190612273526605 -0.075042245423577375 -0.003837262166183332 -0.097054586298530837 -0.10693883073730216
leaf_weight=1175.9955065250397 2060.8194038644433 3802.9790149927139 1192.8646474778652 787.12240996956825 482.69603189080954 469.39159106463194 2163.9681083410978
leaf_count=5021 23899 15621 7287 5707 5145 6644 30993
internal_value=0 0.0605759 0.0916976 -0.018583 -0.0887282 -0.0500109 -0.097401
internal_weight=0 6958.96 4995.84 1963.12 5176.88 952.088 4224.79
internal_count=100317 33636 22908 10728 66681 11789 54892
is_linear=0
shrinkage=0.102489


Tree=10
num_leaves=8
num_cat=0
split_feature=1 5 7 10 152 152 5
split_gain=5384.88 1285.47 424.278 373.598 345.407 178.536 123.364
threshold=32.500000000000007 2.5000000000000004 2.5000000000000004 1.0000000180025095e-35 1.0000000180025095e-35 1.0000000180025095e-35 2.5000000000000004
decision_type=2 2 2 2 2 2 2
left_child=1 4 -3 5 -1 -2 -5
right_child=3 2 -4 6 -6 -7 -8
leaf_value=0.028225566375078611 -0.06520124563721269 0.12979334124787878 0.06393329127582012 -0.051410093760610689 -0.059173006968583075 -0.10398140081110449 0.055462430587949002
leaf_weight=1294.5366818457842 2568.8221156969666 1986.1608442738652 2162.3427815362811 190.09003635495901 747.37240709364414 2500.7717672139406 274.07401393353939
leaf_count=5336 29964 8931 10184 1080 5140 38514 1363
internal_value=0 0.0627832 0.095537 -0.0763273 -0.00373839 -0.0843849 0.011436
internal_weight=0 6190.41 4148.5 5533.76 2041.91 5069.59 464.164
internal_count=100512 29591 19115 70921 10476 68478 2443
is_linear=0
shrinkage=0.102489


Tree=11
num_leaves=8
num_cat=0
split_feature=1 6 5 5 10 6 6
split_gain=4530.07 1150.04 566.107 388.419 340.317 198.575 163.382
threshold=32.500000000000007 2.5000000000000004 2.5000000000000004 3.5000000000000004 1.0000000180025095e-35 4.5000000000000009 3.5000000000000004
decision_type=2 2 2 2 2 2 2
left_child=1 3 -3 -1 5 -2 -6
right_child=4 2 -4 -5 6 -7 -8
leaf_value=-0.056941227882274868 -0.091907146732480599 0.028833128632374663 0.10830295097095388 0.041404924950198548 -0.037785034921189349 -0.038422346911760587 0.086549181572157477
leaf_weight=979.49536418169737 3810.207992028445 1362.4906298667192 3088.6588575392962 736.96484982967377 284.1006935313344 915.89479269459844 179.09859335422516
leaf_count=5660 56252 6510 13852 3569 1626 12226 817
internal_value=0 0.0565486 0.0840246 -0.0146557 -0.0733686 -0.0815847 0.010226
internal_weight=0 6167.61 4451.15 1716.46 5189.3 4726.1 463.199
internal_count=100512 29591 20362 9229 70921 68478 2443
is_linear=0
shrinkage=0.102489


Tree=12
num_leaves=7
num_cat=0
split_feature=156 5 6 6 153 5
split_gain=3242.01 1376.04 725.131 536.74 82.2675 110.71
threshold=1.0000000180025095e-35 3.5000000000000004 3.5000000000000004 2.5000000000000004 1.0000000180025095e-35 4.5000000000000009
decision_type=2 2 2 2 2 2
left_child=4 2 -2 -3 -1 -6
right_child=1 3 -4 -5 5 -7
leaf_value=-0.10362467366481434 -0.045909948338109727 0.013492552984912485 0.041110682419347358 0.10344701853213777 -0.083274325933504895 -0.014204668769401785
leaf_weight=1660.8543160334229 2247.6499442644417 947.74387683346868 1816.6584373116493 2665.736892644316 1355.7207782119513 302.8815678358078
leaf_count=30944 15585 5848 10169 13614 19834 4435
internal_value=0 0.0339036 -0.00698658 0.0799032 -0.0872854 -0.0707568
internal_weight=0 7677.79 4064.31 3613.48 3319.46 1658.6
internal_count=100429 45216 25754 19462 55213 24269
is_linear=0
shrinkage=0.102489


Tree=13
num_leaves=8
num_cat=0
split_feature=1 5 1 153 7 153 153
split_gain=3509.9 597.72 521.641 322.101 260.779 233.27 112.524
threshold=29.500000000000004 2.5000000000000004 37.500000000000007 1.0000000180025095e-35 3.5000000000000004 1.0000000180025095e-35 1.0000000180025095e-35
decision_type=2 2 2 2 2 2 2
left_child=1 5 3 -2 -3 -1 -4
right_child=2 4 6 -5 -6 -7 -8
leaf_value=-0.046081210400774224 -0.07022430132049777 0.10178271397244555 -0.10251886862863933 0.014332000751826958 0.042883234562347945 0.034588080189967944 -0.06528601217172561
leaf_weight=567.29471864551306 761.82731195539236 2317.9191435426474 1709.2520163021982 1238.7938717007637 1215.2355599850416 1108.2070128768682 1789.622060008347
leaf_count=4097 7547 10734 34303 6835 5761 4613 26539
internal_value=0 0.0576888 -0.0596858 -0.0178515 0.0815892 0.00718993 -0.0835525
internal_weight=0 5208.66 5499.5 2000.62 3533.15 1675.5 3498.87
internal_count=100429 25205 75224 14382 16495 8710 60842
is_linear=0
shrinkage=0.102489


Tree=14
num_leaves=8
num_cat=0
split_feature=1 6 11 5 6 7 5
split_gain=3042.68 926.992 517.183 295.422 193.034 208.187 64.9417
threshold=34.500000000000007 2.5000000000000004 1.0000000180025095e-35 4.5000000000000009 4.5000000000000009 2.5000000000000004 4.5000000000000009
decision_type=2 2 2 2 2 2 2
left_child=1 3 -3 -1 6 -6 -2
right_child=4 2 -4 -5 5 -7 -8
leaf_value=-0.043423940032828123 -0.095654274973420148 0.091205381850410133 0.022665223291444214 0.052668644037405545 0.031705221837917373 -0.076859938358901495 -0.055341825246331813
leaf_weight=1457.6100831851363 2398.9035936817527 2849.4152136296034 1956.2166386470199 433.94705593213439 324.69886516034603 425.40340010821819 537.79846655204892
leaf_count=8665 45039 13491 9490 2060 4992 6991 9740
internal_value=0 0.0394271 0.0633476 -0.0212914 -0.0764813 -0.0297649 -0.0883499
internal_weight=0 6697.19 4805.63 1891.56 3686.8 750.102 2936.7
internal_count=100468 33706 22981 10725 66762 11983 54779
is_linear=0
shrinkage=0.102489


Tree=15
num_leaves=8
num_cat=0
split_feature=1 6 153 1 4 153 1
split_gain=2629.34 584.589 459.353 485.966 387.794 64.9982 46.0116
threshold=29.500000000000004 1.5000000000000002 1.0000000180025095e-35 47.500000000000007 5.5000000000000009 1.0000000180025095e-35 34.500000000000007
decision_type=2 2 2 2 2 2 2
left_child=1 5 6 -4 -3 -1 -2
right_child=2 4 3 -5 -6 -7 -8
leaf_value=-0.076173358813788977 -0.063112716118536596 0.018680778839154439 0.0016484569164917297 -0.089720882496819934 0.084346240787558646 -0.011424715940139911 -0.098676160342674582
leaf_weight=276.56457183510065 545.03547391295433 1381.5044452399015 1935.8310526646674 890.25262770056725 3026.4910405501723 405.41814415156841 1630.2669411860406
leaf_count=2116 4095 6817 17678 15813 14462 1693 37794
internal_value=0 0.0501393 -0.0544732 -0.0271393 0.0638076 -0.0379806 -0.0898793
internal_weight=0 5089.98 5001.39 2826.08 4408 681.983 2175.3
internal_count=100468 25088 75380 33491 21279 3809 41889
is_linear=0
shrinkage=0.102489


Tree=16
num_leaves=8
num_cat=0
split_feature=1 5 6 152 6 7 5
split_gain=2222.02 757.768 438.769 282.155 190.238 201.665 64.8842
threshold=34.500000000000007 3.5000000000000004 3.5000000000000004 1.0000000180025095e-35 4.5000000000000009 1.5000000000000002 4.5000000000000009
decision_type=2 2 2 2 2 2 2
left_child=1 2 -1 -3 6 -6 -2
right_child=4 3 -4 -5 5 -7 -8
leaf_value=-0.035254130908037189 -0.092354812033614425 0.086740104116822966 0.038235132455845595 0.016935341082407022 0.075395977579501866 -0.054224846476874131 -0.049915924813444701
leaf_weight=1850.0025932453573 2082.1228336840868 2306.5042532980442 1580.4954885318875 832.79418762400746 162.51032577455044 533.7252355851233 487.05742149800062
leaf_count=10960 45267 10768 7467 4488 2476 9567 9836
internal_value=0 0.0319087 -0.00136298 0.0682781 -0.0715063 -0.0236909 -0.0843949
internal_weight=0 6569.8 3430.5 3139.3 3265.42 696.236 2569.18
internal_count=100829 33683 18427 15256 67146 12043 55103
is_linear=0
shrinkage=0.102489


Tree=17
num_leaves=8
num_cat=0
split_feature=10 7 153 6 153 88 47
split_gain=1924.7 901.326 546.843 507.565 278.164 186.623 72.8359
threshold=1.0000000180025095e-35 2.5000000000000004 1.0000000180025095e-35 1.5000000000000002 1.0000000180025095e-35 1.0000000180025095e-35 1.0000000180025095e-35
decision_type=2 2 2 2 2 2 2
left_child=1 2 -1 6 -5 -3 -2
right_child=3 5 -4 4 -6 -7 -8
leaf_value=-0.060315156407489093 -0.060423686614025619 -0.08829725216824405 0.038600375588614087 0.022086007964069711 0.087954923052616027 -0.018416022684327488 0.016758760444512827
leaf_weight=895.53808909282088 388.39395932853222 2619.1943440698087 1694.501569788903 954.06799905747175 2340.493759945035 480.10830291733146 187.57247928529978
leaf_count=17250 2381 43607 16458 5386 11151 3562 1034
internal_value=0 -0.0402498 0.00433852 0.0534128 0.0689367 -0.0775247 -0.0351341
internal_weight=0 5689.34 2590.04 3870.53 3294.56 3099.3 575.966
internal_count=100829 80877 33708 19952 16537 47169 3415
is_linear=0
shrinkage=0.102489


Tree=18
num_leaves=8
num_cat=0
split_feature=10 7 5 6 5 88 40
split_gain=1612.95 789.384 515.25 444.163 285.371 172.994 73.2289
threshold=1.0000000180025095e-35 2.5000000000000004 4.5000000000000009 3.5000000000000004 3.5000000000000004 1.0000000180025095e-35 1.0000000180025095e-35
decision_type=2 2 2 2 2 2 2
left_child=1 2 -1 4 -2 -3 -5
right_child=3 5 -4 6 -6 -7 -8
leaf_value=-0.023710908764796434 -0.014761674308650555 -0.084534149349927465 0.07988464653591261 0.10175973207330084 0.060375007100636001 -0.016953798396862611 0.050496299771913056
leaf_weight=1865.7008664086461 1193.1048205420375 2466.7529026996344 688.71090778708458 1246.1959265768528 951.61788369715214 480.51223545521498 403.15523521602154
leaf_count=26463 6916 43370 7057 6237 4747 3572 1970
internal_value=0 -0.0374454 0.00421898 0.0493956 0.0185523 -0.0735706 0.0893685
internal_weight=0 5501.68 2554.41 3794.07 2144.72 2947.27 1649.35
internal_count=100332 80462 33520 19870 11663 46942 8207
is_linear=0
shrinkage=0.102489


Tree=19
num_leaves=8
num_cat=0
split_feature=1 6 6 10 1 10 7
split_gain=1590.65 400.046 388.916 301.956 266.753 193.366 68.2953
threshold=29.500000000000004 4.5000000000000009 4.5000000000000009 1.0000000180025095e-35 47.500000000000007 1.0000000180025095e-35 2.5000000000000004
decision_type=2 2 2 2 2 2 2
left_child=2 5 3 -1 -3 -2 -4
right_child=1 4 6 -5 -6 -7 -8
leaf_value=-0.017765590257584084 -0.078239495493785088 0.044932650407642494 0.10595321085465378 0.0440577312318381 -0.072500433022794214 -0.01856856385141922 0.059122568827882208
leaf_weight=1356.2283645272255 2535.1002149619162 683.48369012773037 735.47735425829887 2125.2577712461352 286.52198718860745 744.19864724949002 634.49360500276089
leaf_count=7160 57282 7540 3697 11177 6174 4188 3114
internal_value=0 -0.0476508 0.0382126 0.0199475 0.0100597 -0.0647493 0.0844571
internal_weight=0 4249.3 4851.46 3481.49 970.006 3279.3 1369.97
internal_count=100332 75184 25148 18337 13714 61470 6811
is_linear=0
shrinkage=0.102489


Tree=20
num_leaves=8
num_cat=0
split_feature=1 152 6 152 6 6 10
split_gain=1357.16 418.669 408.237 377.749 214.646 137.032 115.092
threshold=29.500000000000004 1.0000000180025095e-35 3.5000000000000004 1.0000000180025095e-35 3.5000000000000004 2.5000000000000004 1.0000000180025095e-35
decision_type=2 2 2 2 2 2 2
left_child=1 4 6 -4 -1 -3 -2
right_child=2 5 3 -5 -6 -7 -8
leaf_value=0.02937162184891411 -0.085444877451805096 -0.053656252016532992 0.029604697179931756 -0.067949701429867768 0.08137362545692689 0.012336646589764329 -0.031367785084269635
leaf_weight=1658.9788403064013 1770.8462688680738 492.81005159765482 1099.6720061413944 668.43947897292674 1698.9934397935867 989.65128342062235 552.20514802262187
leaf_count=7480 43776 3892 13147 15291 8837 5043 3283
internal_value=0 0.0357238 -0.0444421 -0.00725106 0.0557462 -0.00957228 -0.0726733
internal_weight=0 4840.43 4091.16 1768.11 3357.97 1482.46 2323.05
internal_count=100749 25252 75497 28438 16317 8935 47059
is_linear=0
shrinkage=0.102489


Tree=21
num_leaves=8
num_cat=0
split_feature=1 7 1 6 10 40 88
split_gain=1132.25 405.244 366.463 402.923 342.436 134.505 21.6967
threshold=29.500000000000004 2.5000000000000004 47.500000000000007 3.5000000000000004 1.0000000180025095e-35 1.0000000180025095e-35 1.0000000180025095e-35
decision_type=2 2 2 2 2 2 2
left_child=1 5 3 -2 -3 -1 -4
right_child=2 4 6 -5 -6 -7 -8
leaf_value=0.080616786597069889 -0.056831501344830372 -0.041782491782267284 -0.09214396880616374 0.021638027590586532 0.034554881700074348 0.021397969250828409 -0.0081839887612422408
leaf_weight=1600.4198248833418 1511.1906215921044 993.90224014222622 1135.4542558994144 1255.4979046732187 1620.1998333260417 547.62707725167274 36.540385412052274
leaf_count=8474 25068 5245 33981 15425 8627 2906 1023
internal_value=0 0.0326376 -0.041621 -0.0211946 0.00548085 0.065602 -0.0896343
internal_weight=0 4762.15 3938.68 2766.69 2614.1 2148.05 1171.99
internal_count=100749 25252 75497 40493 13872 11380 35004
is_linear=0
shrinkage=0.102489


Tree=22
num_leaves=8
num_cat=0
split_feature=1 4 152 6 1 152 166
split_gain=968.6 690.029 403.886 240.809 52.2132 64.8928 1.89485
threshold=43.500000000000007 6.5000000000000009 1.0000000180025095e-35 4.5000000000000009 51.500000000000007 1.0000000180025095e-35 1.0000000180025095e-35
decision_type=2 2 2 2 2 2 2
left_child=1 3 -3 -1 5 -2 -6
right_child=4 2 -4 -5 6 -7 -8
leaf_value=-0.039868099894040339 -0.029579772134226388 0.063293107177204586 -0.0071271437782604976 0.02697110801232537 -0.098771194938913995 -0.091715336736566316 -0.046353615614370042
leaf_weight=2244.538019342348 402.33058568276465 2806.5717854127288 1226.0111745242029 753.47471688315272 701.35965055413544 327.03575943596661 20.23965679295361
leaf_count=20053 9737 16871 12332 5214 22827 12481 571
internal_value=0 0.0141791 0.0418643 -0.0230279 -0.0777388 -0.0577569 -0.0975772
internal_weight=0 7030.6 4032.58 2998.01 1450.97 729.366 721.599
internal_count=100086 54470 29203 25267 45616 22218 23398
is_linear=0
shrinkage=0.102489


Tree=23
num_leaves=8
num_cat=0
split_feature=1 5 4 5 152 7 4
split_gain=900.995 525.684 275.644 255.37 235.158 194.271 41.0385
threshold=25.500000000000004 4.5000000000000009 9.5000000000000018 4.5000000000000009 1.0000000180025095e-35 3.5000000000000004 5.5000000000000009
decision_type=2 2 2 2 2 2 2
left_child=3 2 -2 5 -3 -1 -5
right_child=1 4 -4 6 -6 -7 -8
leaf_value=0.047075922075282044 -0.062867041424750372 0.065458086311643807 -0.0038981247277352386 0.053181515753140021 -0.033639731383008756 -0.014195069003958428 0.10267038975051838
leaf_weight=1390.0650558173656 2820.1720427721739 772.47204571217299 1187.0446707028896 270.75506982207298 369.45795925147831 887.07206666469574 621.99209498614073
leaf_count=7469 50594 7857 17057 1357 7545 4800 3407
internal_value=0 -0.0279476 -0.0454357 0.0414848 0.0333012 0.0231695 0.0879296
internal_weight=0 5149.15 4007.22 3169.88 1141.93 2277.14 892.747
internal_count=100086 83053 67651 17033 15402 12269 4764
is_linear=0
shrinkage=0.102489


Tree=24
num_leaves=8
num_cat=0
split_feature=5 1 1 152 4 4 1
split_gain=771.717 456.721 425.518 333.278 177.926 79.4339 13.1406
threshold=3.5000000000000004 48.500000000000007 29.500000000000004 1.0000000180025095e-35 4.5000000000000009 9.5000000000000018 51.500000000000007
decision_type=2 2 2 2 2 2 2
left_child=2 3 4 -2 -1 -4 -3
right_child=1 6 5 -5 -6 -7 -8
leaf_value=-0.04292877141524408 0.067474648922355163 -0.041376338472132422 -0.074716442750244458 -0.0026071306243727202 0.018236063205079419 -0.030109474193803377 -0.088872868058352705
leaf_weight=702.12489811331034 2310.0473371613771 100.61904294416308 1534.0815735626966 1026.1202222090214 1717.4003055915236 594.77699160203338 254.36581205576658
leaf_count=4008 16198 3294 35926 11708 9239 11399 8785
internal_value=0 0.0341118 -0.0289457 0.0458989 0.000422471 -0.0623428 -0.076009
internal_weight=0 3691.15 4548.38 3336.17 2419.53 2128.86 354.985
internal_count=100557 39985 60572 27906 13247 47325 12079
is_linear=0
shrinkage=0.102489


Tree=25
num_leaves=8
num_cat=0
split_feature=10 7 6 1 5 5 47
split_gain=752.762 613.682 382.613 296.191 219.489 216.85 46.9438
threshold=1.0000000180025095e-35 1.5000000000000002 1.5000000000000002 21.500000000000004 3.5000000000000004 1.5000000000000002 1.0000000180025095e-35
decision_type=2 2 2 2 2 2 2
left_child=1 4 6 -3 -1 -4 -2
right_child=2 3 5 -5 -6 -7 -8
leaf_value=-0.0075081309731858305 -0.063741180033358949 0.017036242228949672 -0.01050412119045468 -0.063434801322902079 0.082950620386566642 0.062003102725555828 -0.00014799919249079696
leaf_weight=563.74631292372942 373.52539594471455 574.72881999611855 522.11170848459005 2845.7189016770571 556.84183523058891 2463.0203946605325 185.51567359268665
leaf_count=9327 2395 2989 2832 61579 6620 13775 1040
internal_value=0 -0.0283085 0.0347005 -0.0498806 0.0374154 0.0492874 -0.0429009
internal_weight=0 4541.04 3544.17 3420.45 1120.59 2985.13 559.041
internal_count=100557 80515 20042 64568 15947 16607 3435
is_linear=0
shrinkage=0.102489


Tree=26
num_leaves=8
num_cat=0
split_feature=10 6 153 6 47 88 47
split_gain=615.835 495.399 328.892 298.155 171.759 148.976 41.3173
threshold=1.0000000180025095e-35 3.5000000000000004 1.0000000180025095e-35 1.5000000000000002 1.0000000180025095e-35 1.0000000180025095e-35 1.0000000180025095e-35
decision_type=2 2 2 2 2 2 2
left_child=1 5 -3 6 -5 -1 -2
right_child=3 2 -4 4 -6 -7 -8
leaf_value=-0.073066497420124374 -0.05818326005807771 -0.049210387506675203 0.034176901372752463 0.024575408772223431 0.075668300177940559 0.0015886676761704222 0.00031434658788019381
leaf_weight=1823.9262705165893 361.55896129831672 734.01538045704365 1525.0674324203283 1837.2894355989993 1118.0782805383205 328.4351622723043 189.2659685537219
leaf_count=45289 2390 16288 15692 10225 6416 2980 1056
internal_value=0 -0.0264671 0.00701695 0.031061 0.0439782 -0.0616347 -0.037963
internal_weight=0 4411.44 2259.08 3506.19 2955.37 2152.36 550.825
internal_count=100336 80249 31980 20087 16641 48269 3446
is_linear=0
shrinkage=0.102489


Tree=27
num_leaves=8
num_cat=0
split_feature=5 1 7 11 6 1 1
split_gain=638.289 452.954 387.624 183.355 138.62 101.178 22.2173
threshold=2.5000000000000004 47.500000000000007 3.5000000000000004 1.0000000180025095e-35 3.5000000000000004 19.500000000000004 51.500000000000007
decision_type=2 2 2 2 2 2 2
left_child=3 2 -2 4 -1 -5 -3
right_child=1 6 -4 5 -6 -7 -8
leaf_value=-0.038393349969694152 0.054154442100502326 -0.040395401644095337 -0.0090941820006757868 0.020336312852626954 0.03039980190732838 -0.070822161750641974 -0.088533884563825979
leaf_weight=754.91284542903304 2864.23978966102 169.81620585545897 1573.4274419136345 137.5405248478055 515.23818593472242 1443.5291733238846 317.08162283524871
leaf_count=4763 24656 6384 14353 723 2548 33820 13089
internal_value=0 0.0213919 0.0317111 -0.0395231 -0.0104005 -0.06281 -0.0721913
internal_weight=0 4924.57 4437.67 2851.22 1270.15 1581.07 486.898
internal_count=100336 58482 39009 41854 7311 34543 19473
is_linear=0
shrinkage=0.102489


Tree=28
num_leaves=8
num_cat=0
split_feature=5 10 6 6 1 6 1
split_gain=559.516 440.883 228.557 205.075 200.502 158.898 15.1703
threshold=4.5000000000000009 1.0000000180025095e-35 3.5000000000000004 2.5000000000000004 47.500000000000007 3.5000000000000004 51.500000000000007
decision_type=2 2 2 2 2 2 2
left_child=1 2 -1 -3 5 -2 -6
right_child=4 3 -4 -5 6 -7 -8
leaf_value=-0.072352511082822951 0.02591899841348172 -0.028250520330740277 -0.01709561934055872 0.03291839973163601 -0.016399810817668 0.088635908541146835 -0.082247743927175515
leaf_weight=1518.7374412287027 868.43000936880708 848.1095721386373 1644.3919636541978 1775.5123345702887 64.047779941931367 843.98771508224308 106.95860023796558
leaf_count=39613 7394 5285 25829 9883 2135 6509 4169
internal_value=0 -0.0179283 -0.0436884 0.0130984 0.0463535 0.0569579 -0.0586639
internal_weight=0 5786.75 3163.13 2623.62 1883.42 1712.42 171.006
internal_count=100817 80610 65442 15168 20207 13903 6304
is_linear=0
shrinkage=0.102489


Tree=29
num_leaves=8
num_cat=0
split_feature=4 1 152 11 7 47 1
split_gain=579.306 334.362 272.188 173.331 164.046 127.888 105.681
threshold=9.5000000000000018 25.500000000000004 1.0000000180025095e-35 1.0000000180025095e-35 2.5000000000000004 1.0000000180025095e-35 24.500000000000004
decision_type=2 2 2 2 2 2 2
left_child=1 5 4 -3 -2 -1 -4
right_child=2 3 6 -5 -6 -7 -8
leaf_value=-0.0097008624222524511 0.09476024807221585 -0.0091972819814270714 0.041918108687209035 -0.060020159765111429 0.030494614675334323 0.04392061960082743 -0.037740312711233653
leaf_weight=1172.3941926620901 820.17209235206246 1083.0735063590109 259.78262843191624 2049.7880814615637 865.92324756830931 771.80590594932437 522.46151902526617
leaf_count=6655 6950 6399 1447 55850 7837 4385 11294
internal_value=0 -0.0217836 0.0387232 -0.0425005 0.0618923 0.0115545 -0.0111124
internal_weight=0 5077.06 2468.34 3132.86 1686.1 1944.2 782.244
internal_count=100817 73289 27528 62249 14787 11040 12741
is_linear=0
shrinkage=0.102489


Tree=30
num_leaves=8
num_cat=0
split_feature=152 6 10 1 6 1 10
split_gain=530.983 332.444 235.578 201.984 142.67 122.292 7.64806
threshold=1.0000000180025095e-35 4.5000000000000009 1.0000000180025095e-35 34.500000000000007 4.5000000000000009 51.500000000000007 1.0000000180025095e-35
decision_type=2 2 2 2 2 2 2
left_child=1 2 -1 4 -2 -3 -5
right_child=3 5 -4 6 -6 -7 -8
leaf_value=-0.023518302808428176 -0.037038666400939758 0.069092345529208399 0.029731507245658227 -0.086085776946283152 0.029274604413260959 -0.072147460200758143 0.059812434401324853
leaf_weight=1812.0869051031768 1406.0744447298348 1279.5178968608379 1679.1072030216455 706.77448744513094 446.22249692678452 65.520288024097681 1.6481203250586975
leaf_count=28811 10777 9897 9112 37788 2232 1715 20
internal_value=0 0.0187846 0.00206459 -0.0389131 -0.0209926 0.0620382 -0.0854326
internal_weight=0 4836.23 3491.19 2560.72 1852.3 1345.04 708.423
internal_count=100352 49535 37923 50817 13009 11612 37808
is_linear=0
shrinkage=0.102489


Tree=31
num_leaves=8
num_cat=0
split_feature=47 7 4 10 7 7 4
split_gain=496.424 257.142 238.457 231.562 105.917 99.6354 80.8105
threshold=1.0000000180025095e-35 1.5000000000000002 7.5000000000000009 1.0000000180025095e-35 1.5000000000000002 3.5000000000000004 4.5000000000000009
decision_type=2 2 2 2 2 2 2
left_child=1 6 5 -3 -4 -2 -1
right_child=2 3 4 -5 -6 -7 -8
leaf_value=-0.019732236000919709 0.025266741239279123 -0.058530309926531014 0.11637908274112053 -0.0063903877737585832 0.048321051937385812 -0.0328768949173786 0.042648390004281493
leaf_weight=308.69339135568589 831.07977215480059 1920.5330735575408 323.90434722229838 1683.8734830580652 984.94133938383311 490.11583661846817 719.16835935972631
leaf_count=4616 11154 44464 3267 10065 11310 7173 8303
internal_value=0 -0.0213149 0.0344185 -0.0342181 0.065394 0.00360095 0.0238095
internal_weight=0 4632.27 2630.04 3604.41 1308.85 1321.2 1027.86
internal_count=100352 67448 32904 54529 14577 18327 12919
is_linear=0
shrinkage=0.102489


Tree=32
num_leaves=8
num_cat=0
split_feature=5 4 152 47 1 4 7
split_gain=474.819 301.083 181.087 153.82 134.418 84.3474 65.4303
threshold=4.5000000000000009 7.5000000000000009 1.0000000180025095e-35 1.0000000180025095e-35 29.500000000000004 5.5000000000000009 2.5000000000000004
decision_type=2 2 2 2 2 2 2
left_child=1 4 -3 5 -1 -2 -5
right_child=3 2 -4 6 -6 -7 -8
leaf_value=-0.019450884354967553 -0.018395431186757256 0.027924446612320863 -0.02904120946420571 0.11244373111480849 -0.064734093474237572 0.041383376726909359 0.049486090831237922
leaf_weight=1573.7500651404262 383.85892632417381 1742.9591370718554 879.49349712952971 359.39051876310259 1238.6040587387979 684.28775974549353 360.61018533539027
leaf_count=9199 5316 16922 16700 3559 37355 7484 3872
internal_value=0 -0.0161741 0.00877217 0.0446807 -0.0394632 0.0198078 0.0812792
internal_weight=0 5434.81 2622.45 1788.15 2812.35 1068.15 720.001
internal_count=100407 80176 33622 20231 46554 12800 7431
is_linear=0
shrinkage=0.102489


Tree=33
num_leaves=8
num_cat=0
split_feature=47 153 7 4 10 10 5
split_gain=415.48 226.337 196.452 174.374 134.717 75.1117 51.9893
threshold=1.0000000180025095e-35 1.0000000180025095e-35 1.5000000000000002 5.5000000000000009 1.0000000180025095e-35 1.0000000180025095e-35 2.5000000000000004
decision_type=2 2 2 2 2 2 2
left_child=1 5 6 -3 -4 -1 -2
right_child=2 3 4 -5 -6 -7 -8
leaf_value=-0.07210362690430823 0.035891974469557553 -0.036667242837412087 -0.009961149883750681 0.015551239396738987 0.04321727925170496 -0.027134881521187659 0.10158832321335032
leaf_weight=837.09136080928147 191.26164418552071 1036.9557724269107 1031.6259953500703 1896.7085305983201 964.23650647327304 755.10892463475466 430.41131886746734
leaf_count=30340 2498 13201 20140 18799 5937 5048 4444
internal_value=0 -0.0198144 0.0314668 -0.00288262 0.0156948 -0.0509032 0.0817232
internal_weight=0 4525.86 2617.54 2933.66 1995.86 1592.2 621.673
internal_count=100407 67388 33019 32000 26077 35388 6942
is_linear=0
shrinkage=0.102489


Tree=34
num_leaves=8
num_cat=0
split_feature=6 7 1 10 1 10 6
split_gain=424.144 273.222 221.342 196.564 153.023 120.753 86.7566
threshold=3.5000000000000004 2.5000000000000004 25.500000000000004 1.0000000180025095e-35 51.500000000000007 1.0000000180025095e-35 1.5000000000000002
decision_type=2 2 2 2 2 2 2
left_child=2 4 6 -3 -2 -4 -1
right_child=1 3 5 -5 -6 -7 -8
leaf_value=-0.032982600601397814 0.063365408635501719 -0.032411861258948141 -0.0655740531962061 0.037907348428251483 -0.070556618270735283 -0.017217133266623705 0.021455739248621108
leaf_weight=425.51200591027737 1560.5796235268936 986.71519566979259 1259.9414381757379 720.50331484526396 92.745965844020247 967.06087072566152 1088.4158213734627
leaf_count=2615 14573 18101 45375 4370 3478 6031 6263
internal_value=0 0.0260415 -0.0241104 -0.00266357 0.0557139 -0.0446566 0.00606241
internal_weight=0 3360.54 3740.93 1707.22 1653.33 2227 1513.93
internal_count=100806 40522 60284 22471 18051 51406 8878
is_linear=0
shrinkage=0.102489


Tree=35
num_leaves=8
num_cat=0
split_feature=5 40 152 88 10 88 40
split_gain=379.22 279.012 197.093 101.95 77.4509 62.5152 23.5803
threshold=2.5000000000000004 1.0000000180025095e-35 1.0000000180025095e-35 1.0000000180025095e-35 1.0000000180025095e-35 1.0000000180025095e-35 1.0000000180025095e-35
decision_type=2 2 2 2 2 2 2
left_child=3 2 -2 4 -1 -3 -5
right_child=1 5 -4 6 -6 -7 -8
leaf_value=-0.061231900637123318 0.050766862175987464 -0.034331130043343185 -0.0035293423418291357 0.02396911773903472 -0.02074317102411654 0.023797805306456261 -0.024651006069352131
leaf_weight=1077.7368682343513 2198.6395474830642 1024.0610124925151 1025.8381806090474 347.49299756344408 942.82677255198359 236.0386015791446 146.11293138004839
leaf_count=32294 22262 16465 18554 2558 5812 1688 1173
internal_value=0 0.0174799 0.0334687 -0.0322281 -0.0424301 -0.0233388 0.00932326
internal_weight=0 4484.58 3224.48 2514.17 2020.56 1260.1 493.606
internal_count=100806 58969 40816 41837 38106 18153 3731
is_linear=0
shrinkage=0.102489


Tree=36
num_leaves=8
num_cat=0
split_feature=5 6 1 40 1 6 6
split_gain=359.597 260.488 135.742 132.069 106.45 74.3762 28.5145
threshold=2.5000000000000004 3.5000000000000004 25.500000000000004 1.0000000180025095e-35 29.500000000000004 4.5000000000000009 4.5000000000000009
decision_type=2 2 2 2 2 2 2
left_child=4 2 -2 -3 5 -1 -6
right_child=1 3 -4 -5 6 -7 -8
leaf_value=-0.027750642919569708 0.021537774787676905 0.058145202028948316 -0.028219186932178241 0 -0.067553457391892308 0.026038832701435179 -0.027944957588456519
leaf_weight=1061.8807828146964 997.74537468329072 1533.6207781834528 1353.4446320608258 562.64993252884597 769.37049454730004 358.28557738661766 273.05263544619083
leaf_count=6772 5657 17253 28749 7088 27453 1903 5890
internal_value=0 0.016323 -0.00705925 0.0425809 -0.0324763 -0.0140889 -0.0573518
internal_weight=0 4447.46 2351.19 2096.27 2462.59 1420.17 1042.42
internal_count=100765 58747 34406 24341 42018 8675 33343
is_linear=0
shrinkage=0.102489


Tree=37
num_leaves=8
num_cat=0
split_feature=7 1 6 1 40 3 1
split_gain=360.466 253.092 219.649 162.445 50.8199 36.403 22.7448
threshold=3.5000000000000004 48.500000000000007 1.5000000000000002 21.500000000000004 1.0000000180025095e-35 54.500000000000007 51.500000000000007
decision_type=2 2 2 2 2 2 2
left_child=1 2 -1 5 -5 -2 -3
right_child=3 6 -4 4 -6 -7 -8
leaf_value=-0.034940919025424851 -0.014704654149442666 -0.023948520488558951 0.0343689008466804 -0.035424936397867736 -0.072288937649436238 0.034596801684385628 -0.080511132925595974
leaf_weight=556.20989574678242 275.56257462128997 116.43688068538904 3396.888337995857 1296.2032959898934 583.07350191194564 355.95482951775193 257.34539879392833
leaf_count=7245 1519 5365 34515 23451 11868 2192 14610
internal_value=0 0.0169286 0.0245776 -0.0318707 -0.0469825 0.0129388 -0.0633905
internal_weight=0 4326.88 3953.1 2510.79 1879.28 631.517 373.782
internal_count=100765 61735 41760 39030 35319 3711 19975
is_linear=0
shrinkage=0.102489


Tree=38
num_leaves=8
num_cat=0
split_feature=4 1 11 5 1 5 1
split_gain=374.944 190.544 156.79 148.909 85.0121 53.6745 53.3128
threshold=9.5000000000000018 21.500000000000004 1.0000000180025095e-35 2.5000000000000004 51.500000000000007 4.5000000000000009 23.500000000000004
decision_type=2 2 2 2 2 2 2
left_child=1 5 -3 6 -5 -1 -2
right_child=3 2 -4 4 -6 -7 -8
leaf_value=0.0086472226055614391 0.038498108812074563 -0.0029650854633188665 -0.046557841948262221 0.058121361409434545 -0.06696048886144737 0.063887734142797317 -0.019538711715597609
leaf_weight=721.23893509805202 235.6795959584415 1511.9131033048034 2046.7590699852444 1420.2569452561438 57.096031877212226 249.67727084830403 550.06004231981933
leaf_count=4211 1354 9449 58052 13698 3011 1602 9468
internal_value=0 -0.0170883 -0.0280789 0.0339788 0.053133 0.0230619 -0.001944
internal_weight=0 4529.59 3558.67 2263.09 1477.35 970.916 785.74
internal_count=100845 73314 67501 27531 16709 5813 10822
is_linear=0
shrinkage=0.102489


Tree=39
num_leaves=8
num_cat=0
split_feature=6 152 4 4 7 1 1
split_gain=332.852 207.491 132.485 118.901 88.3653 79.2861 50.5812
threshold=4.5000000000000009 1.0000000180025095e-35 7.5000000000000009 4.5000000000000009 3.5000000000000004 29.500000000000004 23.500000000000004
decision_type=2 2 2 2 2 2 2
left_child=1 2 -1 6 -5 -3 -2
right_child=3 5 -4 4 -6 -7 -8
leaf_value=-0.019263980242623546 0.045734230616877786 -0.02448570674521942 0.022202842805413566 0.074221944396851244 0.01495682740399778 -0.069899571022123116 -0.022336284649580651
leaf_weight=1613.5820236271247 161.29722785204649 1029.4475828316063 1619.0264745252207 841.45161852333695 393.67477213032544 678.25854727020487 382.19462016690522
leaf_count=21452 923 7388 16930 8697 4598 34535 6322
internal_value=0 -0.0137669 0.00147261 0.0379144 0.0554715 -0.0426446 -0.00184853
internal_weight=0 4940.31 3232.61 1778.62 1235.13 1707.71 543.492
internal_count=100845 80305 38382 20540 13295 41923 7245
is_linear=0
shrinkage=0.102489


Tree=40
num_leaves=8
num_cat=0
split_feature=47 153 36 1 1 1 1
split_gain=279.209 150.946 125.822 105.896 75.5296 57.8344 32.2578
threshold=1.0000000180025095e-35 1.0000000180025095e-35 1.0000000180025095e-35 51.500000000000007 47.500000000000007 34.500000000000007 51.500000000000007
decision_type=2 2 2 2 2 2 2
left_child=1 5 4 -3 -2 -1 -4
right_child=2 3 6 -5 -6 -7 -8
leaf_value=-0.032340604635329812 0.018013410942572066 0.0019610212966399885 0.066453706814750074 -0.089489347209122827 -0.060284328372529866 -0.081964421909220875 -0.047188482424372201
leaf_weight=1098.3836978431791 1551.3955128192902 2602.8118355497718 709.35874929418787 138.11218304093927 138.77847473975271 324.84881258150563 24.810052041430026
leaf_count=8947 15997 24564 7508 7395 7831 26390 1571
internal_value=0 -0.01678 0.0269535 -0.00266969 0.0114593 -0.043839 0.0623538
internal_weight=0 4164.16 2424.34 2740.92 1690.17 1423.23 734.169
internal_count=100203 67296 32907 31959 23828 35337 9079
is_linear=0
shrinkage=0.102489


Tree=41
num_leaves=8
num_cat=0
split_feature=5 7 10 1 6 7 1
split_gain=325.035 222.573 155.476 112.755 96.869 78.3449 33.4622
threshold=4.5000000000000009 2.5000000000000004 1.0000000180025095e-35 48.500000000000007 2.5000000000000004 1.5000000000000002 43.500000000000007
decision_type=2 2 2 2 2 2 2
left_child=1 3 -3 -1 6 -6 -2
right_child=4 2 -4 -5 5 -7 -8
leaf_value=0.017744797903941803 0.01233724685981716 -0.058943203310958703 -0.010054006462873528 -0.069649717327868996 0.10035863215590299 0.038884142300108365 -0.064048157862561877
leaf_weight=1976.9643558859825 445.74920528568327 1296.3905203207396 1457.4361180681735 165.95959999039769 304.20407089777291 812.12414770852774 67.537893923465163
leaf_count=22057 3677 38573 9091 10402 3147 9699 3557
internal_value=0 -0.0138585 -0.0331331 0.0108694 0.038956 0.0558781 0.00187489
internal_weight=0 4896.75 2753.83 2142.92 1629.62 1116.33 513.287
internal_count=100203 80123 47664 32459 20080 12846 7234
is_linear=0
shrinkage=0.102489


Tree=42
num_leaves=8
num_cat=0
split_feature=4 6 36 10 36 1 6
split_gain=311.471 218.388 122.18 118.289 72.9708 33.2339 29.4536
threshold=3.5000000000000004 3.5000000000000004 1.0000000180025095e-35 1.0000000180025095e-35 1.0000000180025095e-35 28.500000000000004 4.5000000000000009
decision_type=2 2 2 2 2 2 2
left_child=4 3 -3 -2 6 -6 -1
right_child=1 2 -4 -5 5 -7 -8
leaf_value=-0.062942111567559744 -0.031465435205412472 0.020200335791895598 0.0706094579528459 0.012619580239755951 0.01870931972741879 -0.034939740720534414 -0.024400449160187531
leaf_weight=816.5670823417604 1143.4358271770179 1598.2978651290759 744.62272371631116 1441.3878634721041 270.11081307195127 215.71782820578665 297.86056246701628
leaf_count=17481 33137 20154 8392 8960 1661 6563 4315
internal_value=0 0.0136564 0.0363122 -0.00685044 -0.0383577 -0.00494067 -0.0527967
internal_weight=0 4927.74 2342.92 2584.82 1600.26 485.829 1114.43
internal_count=100663 70643 28546 42097 30020 8224 21796
is_linear=0
shrinkage=0.102489


Tree=43
num_leaves=8
num_cat=0
split_feature=7 10 1 5 1 6 4
split_gain=256.94 197.701 123.103 116.085 90.9013 71.5364 2.65842
threshold=1.5000000000000002 1.0000000180025095e-35 18.500000000000004 2.5000000000000004 51.500000000000007 1.5000000000000002 7.5000000000000009
decision_type=2 2 2 2 2 2 2
left_child=4 2 -2 -3 5 -1 -6
right_child=1 3 -4 -5 6 -7 -8
leaf_value=-0.013317173068839627 0.042836190609636872 -0.017828183106977015 -0.037710652484886191 0.02755852128560566 -0.088318341148434662 0.053357285837904944 -0.038398633784085444
leaf_weight=192.60071041993797 215.5024922080338 958.96035426110029 2285.5742098614573 1533.1869704499841 41.666108837816864 1217.374447110109 36.125112992711365
leaf_count=2544 1232 6078 63481 10078 2716 12761 1773
internal_value=0 -0.0103436 -0.0307 0.0100515 0.0381518 0.044169 -0.067983
internal_weight=0 4993.22 2501.08 2492.15 1487.77 1409.98 77.7912
internal_count=100663 80869 64713 16156 19794 15305 4489
is_linear=0
shrinkage=0.102489


Tree=44
num_leaves=8
num_cat=0
split_feature=5 36 1 10 7 152 7
split_gain=242.292 137.481 131.712 93.0279 79.9594 46.7791 40.797
threshold=3.5000000000000004 1.0000000180025095e-35 21.500000000000004 1.0000000180025095e-35 3.5000000000000004 1.0000000180025095e-35 3.5000000000000004
decision_type=2 2 2 2 2 2 2
left_child=2 4 6 -4 -2 -3 -1
right_child=1 5 3 -5 -6 -7 -8
leaf_value=0.039231684289420768 0.021753111175644629 0.06979052624998193 -0.04791410263906113 -0.0098631270996855473 -0.020499501704061854 0.017712077014158705 -0.0087040770801064139
leaf_weight=436.25061946734786 1287.2273070900701 630.70825475174934 1390.8372166403569 1328.0462684221566 737.05404631095007 264.63394847884774 318.36718436330557
leaf_count=2629 17804 6443 47589 8466 11134 4597 1912
internal_value=0 0.0211793 -0.0188622 -0.0293874 0.00631161 0.0545882 0.0188986
internal_weight=0 2919.62 3473.5 2718.88 2024.28 895.342 754.618
internal_count=100574 39978 60596 56055 28938 11040 4541
is_linear=0
shrinkage=0.102489


Tree=45
num_leaves=8
num_cat=0
split_feature=152 40 6 1 5 1 166
split_gain=215.532 160.832 134.852 108.407 62.9239 54.852 1.88335
threshold=1.0000000180025095e-35 1.0000000180025095e-35 1.5000000000000002 37.500000000000007 2.5000000000000004 23.500000000000004 1.0000000180025095e-35
decision_type=2 2 2 2 2 2 2
left_child=1 2 -1 4 -2 -3 -5
right_child=3 5 -4 6 -6 -7 -8
leaf_value=-0.027790367893432394 -0.042040353187738931 0.014507300284356752 0.034137362979116896 -0.078916268496928094 -0.0015942067920068929 -0.033622719630344015 -0.024219308393638193
leaf_weight=426.7990733589977 634.93714854447171 350.62352861091495 2608.6760940263048 358.52009291900322 1121.2925018514507 825.97130401711911 14.690083655528722
leaf_count=5697 7950 2031 29463 33038 8784 12493 1118
internal_value=0 0.0129037 0.025383 -0.027088 -0.0163077 -0.0191903 -0.0771833
internal_weight=0 4212.07 3035.48 2129.44 1756.23 1176.59 373.21
internal_count=100574 49684 35160 50890 16734 14524 34156
is_linear=0
shrinkage=0.102489


Tree=46
num_leaves=8
num_cat=0
split_feature=6 4 37 3 152 3 7
split_gain=215.555 147.797 120.611 96.0222 62.1943 28.2996 14.7267
threshold=4.5000000000000009 2.5000000000000004 1.0000000180025095e-35 26.500000000000004 1.0000000180025095e-35 9.5000000000000018 1.5000000000000002
decision_type=2 2 2 2 2 2 2
left_child=1 6 -3 5 -5 -2 -1
right_child=3 2 -4 4 -6 -7 -8
leaf_value=-0.020996801390821187 0.040096168662234297 0.0070989300528977008 -0.037204263380356845 0.060293937884625497 0.012645645524072671 -0.030189726056193984 -0.05668339064818767
leaf_weight=163.87445178255439 73.392929231282324 2930.0927049503662 825.22942286310717 871.11875934433192 440.32634072285146 283.13546669669449 684.5353815308772
leaf_count=3232 1158 47073 14525 8550 5704 5078 15227
internal_value=0 -0.0113907 -0.00262302 0.0315911 0.0444191 -0.0152857 -0.0499792
internal_weight=0 4603.73 3755.32 1667.97 1311.45 356.528 848.41
internal_count=100547 80057 61598 20490 14254 6236 18459
is_linear=0
shrinkage=0.102489


Tree=47
num_leaves=8
num_cat=0
split_feature=47 152 4 10 7 36 1
split_gain=205.349 114.312 108.19 90.8359 53.0509 52.4025 40.4268
threshold=1.0000000180025095e-35 1.0000000180025095e-35 9.5000000000000018 1.0000000180025095e-35 3.5000000000000004 1.0000000180025095e-35 32.500000000000007
decision_type=2 2 2 2 2 2 2
left_child=1 3 5 -1 -4 -2 -3
right_child=2 6 4 -5 -6 -7 -8
leaf_value=-0.019346128632913306 -0.0042639057969444411 -0.027511864845455127 0.074427522794811768 0.01898002191972355 0.017935984762296329 0.036958865210073605 -0.068198855634591368
leaf_weight=1419.6839786558412 1062.3555447780527 948.06944632623345 514.92833135416731 1193.1889226771891 274.44417964667082 461.70181071246043 362.21330894948915
leaf_count=24536 16984 7490 6180 7423 3413 6418 28103
internal_value=0 -0.0142414 0.0242436 -0.00180273 0.0550139 0.00818675 -0.0389254
internal_weight=0 3923.16 2313.43 2612.87 789.373 1524.06 1310.28
internal_count=100547 67552 32995 31959 9593 23402 35593
is_linear=0
shrinkage=0.102489


Tree=48
num_leaves=8
num_cat=0
split_feature=7 4 10 40 6 6 6
split_gain=199.878 154.39 144.048 87.8633 67.0503 44.8283 42.4545
threshold=3.5000000000000004 9.5000000000000018 1.0000000180025095e-35 1.0000000180025095e-35 1.5000000000000002 3.5000000000000004 4.5000000000000009
decision_type=2 2 2 2 2 2 2
left_child=1 3 5 -1 -3 -2 -4
right_child=2 4 6 -5 -6 -7 -8
leaf_value=0.010675494656461969 -0.074887868317809483 -0.011907267864984769 -0.0091817966375136659 -0.031046642828238297 0.051053694146068904 -0.03212450261005078 0.041260075522738693
leaf_weight=1870.969371276442 491.15536260092631 206.06256007170305 982.52534074708819 737.29344641510397 1154.4679781221785 577.35985141759738 211.23035564646125
leaf_count=30255 19342 3123 6273 14161 14223 12164 1425
internal_value=0 0.0134737 -0.024683 -0.0010925 0.0414369 -0.0519816 -0.000114692
internal_weight=0 3968.79 2262.27 2608.26 1360.53 1068.52 1193.76
internal_count=100966 61762 39204 44416 17346 31506 7698
is_linear=0
shrinkage=0.102489


Tree=49
num_leaves=8
num_cat=0
split_feature=7 10 88 1 6 37 47
split_gain=176.82 133.233 87.0802 69.0685 68.7037 62.6557 3.24742
threshold=1.5000000000000002 1.0000000180025095e-35 1.0000000180025095e-35 51.500000000000007 1.5000000000000002 1.0000000180025095e-35 1.0000000180025095e-35
decision_type=2 2 2 2 2 2 2
left_child=3 2 -2 5 -3 -1 -5
right_child=1 4 -4 6 -6 -7 -8
leaf_value=0.047154237110952263 -0.037847050781750699 -0.031878091140217384 0.0095412887007372375 -0.084594680821183252 0.01476201365786445 -0.0065055695091425841 -0.028607704090716623
leaf_weight=1096.597298944369 1826.129518257454 394.73487227596343 518.94963572453707 43.777635765727609 2000.5964316353202 283.85683164559305 27.218911948148161
leaf_count=12035 60147 2824 4841 3171 13245 3334 1369
internal_value=0 -0.00995214 -0.0273162 0.0309069 0.0070121 0.0360506 -0.0659306
internal_weight=0 4740.41 2345.08 1451.45 2395.33 1380.45 70.9965
internal_count=100966 81057 64988 19909 16069 15369 4540
is_linear=0
shrinkage=0.102489


Tree=50
num_leaves=8
num_cat=0
split_feature=36 7 153 10 7 1 40
split_gain=201.038 105.121 76.7801 73.5664 65.6405 35.7879 35.7421
threshold=1.0000000180025095e-35 3.5000000000000004 1.0000000180025095e-35 1.0000000180025095e-35 2.5000000000000004 29.500000000000004 1.0000000180025095e-35
decision_type=2 2 2 2 2 2 2
left_child=1 2 -1 -3 6 -6 -2
right_child=4 3 -4 -5 5 -7 -8
leaf_value=-0.024432255791101986 0.06137106781595663 -0.057847960524403899 0.012244430659464447 -0.012637394785944178 0.024398305251424994 -0.016411777055460396 0.013298199190044387
leaf_weight=892.14483426441438 641.28773959865794 701.50143816368654 1817.613156682346 836.65281783789396 646.58027624338865 341.47307578404434 227.16577357007191
leaf_count=21856 8266 22882 22393 5426 4230 11731 3389
internal_value=0 -0.0119918 0.000121312 -0.0333727 0.0284196 0.0101831 0.0489763
internal_weight=0 4247.91 2709.76 1538.15 1856.51 988.053 868.454
internal_count=100173 72557 44249 28308 27616 15961 11655
is_linear=0
shrinkage=0.102489


Tree=51
num_leaves=8
num_cat=0
split_feature=5 4 36 6 4 40 6
split_gain=195.146 101.489 84.2119 60.5372 53.3449 43.7995 38.1622
threshold=3.5000000000000004 6.5000000000000009 1.0000000180025095e-35 3.5000000000000004 9.5000000000000018 1.0000000180025095e-35 4.5000000000000009
decision_type=2 2 2 2 2 2 2
left_child=2 5 4 -3 -1 -2 -4
right_child=1 3 6 -5 -6 -7 -8
leaf_value=-0.038769619882347131 0.01012299645157063 0.018057795649609937 -0.0042472153007421512 0.058535874720633561 -0.0054390594142608292 -0.032890372576360481 0.040379464548688335
leaf_weight=1509.8841829367448 871.35094439936802 834.5062053273432 718.74024220136926 744.83415044983849 769.83661701204255 345.22745983232744 275.77015478769317
leaf_count=32137 13297 11402 13155 8989 11556 6247 3390
internal_value=0 0.020139 -0.0167155 0.0372637 -0.0275749 -0.0020298 0.00807703
internal_weight=0 2795.92 3274.23 1579.34 2279.72 1216.58 994.51
internal_count=100173 39935 60238 20391 43693 19544 16545
is_linear=0
shrinkage=0.102489


Tree=52
num_leaves=8
num_cat=0
split_feature=5 4 1 36 4 1 36
split_gain=173.154 112.049 84.5985 58.9879 33.6205 19.8497 18.8753
threshold=4.5000000000000009 2.5000000000000004 43.500000000000007 1.0000000180025095e-35 2.5000000000000004 51.500000000000007 1.0000000180025095e-35
decision_type=2 2 2 2 2 2 2
left_child=1 6 -3 4 -2 -5 -1
right_child=3 2 -4 5 -6 -7 -8
leaf_value=-0.0551116499446936 -0.02306910511898316 0.0019098220303436744 -0.049853593253893463 0.062511480751828691 0.024016012816643895 -0.049774704136029288 -0.020543401301778775
leaf_weight=580.91391423670575 192.87736841803417 3321.0746478170622 366.13048524269834 467.87977627897635 835.05404310533777 14.690743035171179 252.4574714617338
leaf_count=13734 3135 33546 27787 4979 11201 900 5170
internal_value=0 -0.0109366 -0.00322549 0.02912 0.0150514 0.0586866 -0.0448393
internal_weight=0 4520.58 3687.21 1510.5 1027.93 482.571 833.371
internal_count=100452 80237 61333 20215 14336 5879 18904
is_linear=0
shrinkage=0.102489


Tree=53
num_leaves=8
num_cat=0
split_feature=47 1 4 10 5 4 6
split_gain=155.725 80.7244 69.2608 67.0103 37.7095 30.999 30.6242
threshold=1.0000000180025095e-35 21.500000000000004 9.5000000000000018 1.0000000180025095e-35 4.5000000000000009 7.5000000000000009 2.5000000000000004
decision_type=2 2 2 2 2 2 2
left_child=1 5 4 -3 -2 -1 -4
right_child=2 3 6 -5 -6 -7 -8
leaf_value=-0.0040245643523390776 -0.0025292909238009676 -0.036170904161802402 0.013820117083939031 -0.0051375767109599329 0.034479664683491354 0.036068899534665674 0.058703678572884679
leaf_weight=416.12192792072892 1077.8711999671068 1546.5008287874516 238.00687038945034 1402.5846057385206 391.04303403990343 384.56614474207163 540.59571116603911
leaf_count=2616 18338 52659 3362 9512 4962 2650 6353
internal_value=0 -0.0136128 0.0204903 -0.0214605 0.00728427 0.015142 0.0451883
internal_weight=0 3749.77 2247.52 2949.09 1468.91 800.688 778.603
internal_count=100452 67437 33015 62171 23300 5266 9715
is_linear=0
shrinkage=0.102489


Tree=54
num_leaves=8
num_cat=0
split_feature=40 1 5 5 1 152 76
split_gain=163.732 117.013 115.969 43.0852 28.5839 25.2896 3.89119
threshold=1.0000000180025095e-35 51.500000000000007 4.5000000000000009 4.5000000000000009 23.500000000000004 1.0000000180025095e-35 1.0000000180025095e-35
decision_type=2 2 2 2 2 2 2
left_child=1 2 -1 4 -2 -5 -3
right_child=3 6 -4 5 -6 -7 -8
leaf_value=0.002874268763378509 -0.014227195365965542 -0.075102382788838087 0.042529414680818771 0.018829906488654923 -0.047609469304625306 -0.034898086448604995 0.0071231108231892644
leaf_weight=3058.419217802817 404.2511790599674 168.61244221031666 1038.6716261440888 273.04136317037046 888.13307630526833 136.20363971707411 3.5161933698691419
leaf_count=41648 2616 15259 11376 3098 23423 2919 314
internal_value=0 0.00945581 0.0129688 -0.0281205 -0.0372868 0.000610077 -0.072755
internal_weight=0 4269.22 4097.09 1701.63 1292.38 409.245 172.129
internal_count=100653 68597 53024 32056 26039 6017 15573
is_linear=0
shrinkage=0.102489


Tree=55
num_leaves=8
num_cat=0
split_feature=153 37 5 1 7 10 1
split_gain=140.044 110.594 93.3033 76.2638 41.4989 29.8124 5.70997
threshold=1.0000000180025095e-35 1.0000000180025095e-35 1.5000000000000002 33.500000000000007 1.5000000000000002 1.0000000180025095e-35 47.500000000000007
decision_type=2 2 2 2 2 2 2
left_child=3 2 -2 4 -1 -3 -5
right_child=1 5 -4 6 -6 -7 -8
leaf_value=0.018734931844502558 -0.02013888398869795 -0.040675628479607998 0.026651490148069477 -0.052987969144012846 -0.021910681789062074 -0.0014546166220098713 -0.083283669956227768
leaf_weight=333.15873789321631 535.82579415850341 459.56934889312834 2616.4909623293206 286.5159649674315 1206.8574695084244 374.78064421564341 124.91229921369813
leaf_count=2157 6956 8563 31740 19644 9908 2536 19149
internal_value=0 0.00985729 0.0186571 -0.0236341 -0.0130365 -0.0232292 -0.0627949
internal_weight=0 3986.67 3152.32 1951.44 1540.02 834.35 411.428
internal_count=100653 49795 38696 50858 12065 11099 38793
is_linear=0
shrinkage=0.102489


Tree=56
num_leaves=8
num_cat=0
split_feature=6 4 1 10 4 153 1
split_gain=153.24 90.4462 70.8602 58.0863 38.6678 34.9113 34.2435
threshold=3.5000000000000004 9.5000000000000018 24.500000000000004 1.0000000180025095e-35 7.5000000000000009 1.0000000180025095e-35 51.500000000000007
decision_type=2 2 2 2 2 2 2
left_child=2 3 4 -2 -1 -4 -3
right_child=1 6 5 -5 -6 -7 -8
leaf_value=-0.014645927421105681 -0.0097922757829964919 0.047043914763459663 -0.048427565170604689 0.027472750796799079 0.022199102497662181 -0.018400304058015193 -0.057102588593126669
leaf_weight=594.18710105679929 1166.282845817972 902.53493426973 607.1453585959971 700.66316623613238 596.36204505898058 1300.0993123902008 31.910565963480622
leaf_count=3833 23706 9661 29342 4910 3880 23319 1921
internal_value=0 0.0172559 -0.0158112 0.00415105 0.00372797 -0.0280545 0.0432618
internal_weight=0 2801.39 3097.79 1866.95 1190.55 1907.24 934.446
internal_count=100572 40198 60374 28616 7713 52661 11582
is_linear=0
shrinkage=0.102489


Tree=57
num_leaves=8
num_cat=0
split_feature=152 6 36 6 47 156 47
split_gain=129.737 98.8492 59.4642 50.4317 49.4588 38.9561 11.2668
threshold=1.0000000180025095e-35 3.5000000000000004 1.0000000180025095e-35 2.5000000000000004 1.0000000180025095e-35 1.0000000180025095e-35 1.0000000180025095e-35
decision_type=2 2 2 2 2 2 2
left_child=1 4 -3 6 -1 -5 -2
right_child=3 2 -4 5 -6 -7 -8
leaf_value=-0.016648767868535003 -0.059562873264697752 0.014998907021895888 0.05451954088534653 -0.058464591877308264 0.016163389548837667 -0.0045032771338838614 -0.028322344509711952
leaf_weight=1336.5624788729474 345.72679956653155 1272.1344755324535 590.8912166855298 158.71019346453249 750.36239356547594 1176.8693814557046 221.65591657510959
leaf_count=18584 15567 15166 6724 17749 9269 11004 6509
internal_value=0 0.0104794 0.0276346 -0.0220812 -0.00479639 -0.0110713 -0.0476841
internal_weight=0 3949.95 1863.03 1902.96 2086.92 1335.58 567.383
internal_count=100572 49743 21890 50829 27853 28753 22076
is_linear=0
shrinkage=0.102489


Tree=58
num_leaves=8
num_cat=0
split_feature=7 10 88 4 158 152 6
split_gain=125.804 104.887 91.7746 58.9422 52.8725 31.5941 28.0739
threshold=2.5000000000000004 1.0000000180025095e-35 1.0000000180025095e-35 3.5000000000000004 1.0000000180025095e-35 1.0000000180025095e-35 4.5000000000000009
decision_type=2 2 2 2 2 2 2
left_child=2 6 3 -1 -4 -3 -2
right_child=1 5 4 -5 -6 -7 -8
leaf_value=-0.022304523415981516 -0.04404221170397981 0.013958585994081108 0.049834992409911662 0.017227784358570187 0.22510628954291309 -0.014955622114834775 -0.012523948592890388
leaf_weight=518.09687241376378 971.19479390908964 1089.4642170071602 459.23693935712799 1643.9378379411064 17.495563228148967 619.79317222721875 445.28274985495955
leaf_count=11062 37995 7118 3627 26296 579 4684 8657
internal_value=0 -0.0136302 0.0167484 0.00769404 0.0573894 0.00340721 -0.0342398
internal_weight=0 3125.73 2638.77 2162.03 476.733 1709.26 1416.48
internal_count=100018 58454 41564 37358 4206 11802 46652
is_linear=0
shrinkage=0.102489


Tree=59
num_leaves=8
num_cat=0
split_feature=5 4 6 7 1 7 6
split_gain=129.881 108.229 86.8435 31.0662 23.8895 19.4103 8.05667
threshold=1.5000000000000002 3.5000000000000004 1.5000000000000002 1.5000000000000002 23.500000000000004 1.5000000000000002 1.5000000000000002
decision_type=2 2 2 2 2 2 2
left_child=4 3 -3 -2 6 -6 -1
right_child=1 2 -4 -5 5 -7 -8
leaf_value=-0.047801084180618722 0.010058177075486634 -0.022729331870662953 0.022310432073895572 -0.029617222881938996 -0.011418342242709633 -0.054113065046374587 -0.00031027421386569412
leaf_weight=43.802128886803985 265.50660105771385 521.68219882668927 3111.9698085179552 877.33463466493413 152.21572979632765 522.48918685433455 234.47683330252767
leaf_count=407 4439 10513 46327 19476 3215 14220 1421
internal_value=0 0.00713895 0.0158062 -0.0203062 -0.0342622 -0.0446983 -0.008446
internal_weight=0 4776.49 3633.65 1142.84 952.984 674.705 278.279
internal_count=100018 80755 56840 23915 19263 17435 1828
is_linear=0
shrinkage=0.102489


Tree=60
num_leaves=8
num_cat=0
split_feature=7 1 47 1 6 4 1
split_gain=109.391 90.2142 61.0961 44.5659 33.5291 33.3333 2.41273
threshold=1.5000000000000002 21.500000000000004 1.0000000180025095e-35 50.500000000000007 3.5000000000000004 1.5000000000000002 53.500000000000007
decision_type=2 2 2 2 2 2 2
left_child=3 5 -3 4 -1 -2 -5
right_child=1 2 -4 6 -6 -7 -8
leaf_value=0.010265847555462613 -0.035591423034602609 -0.028610663525283273 0 -0.021945809185779763 0.043730384246862306 0.023215508766014536 -0.067937474304656353
leaf_weight=605.69949488132261 110.72230748459697 2096.0001887085382 1240.6349849854596 31.023945463355631 679.13780355500057 916.77217233553529 44.746586168650538
leaf_count=7714 723 50299 23284 1628 6878 6336 3477
internal_value=0 -0.00975848 -0.017949 0.0234994 0.0280764 0.0167199 -0.0514988
internal_weight=0 4364.13 3336.64 1360.61 1284.84 1027.49 75.7705
internal_count=100339 80642 73583 19697 14592 7059 5105
is_linear=0
shrinkage=0.102489


Tree=61
num_leaves=8
num_cat=0
split_feature=40 6 1 37 1 1 4
split_gain=99.1251 83.7975 72.0047 32.5252 23.8856 23.2951 8.10364
threshold=1.0000000180025095e-35 1.5000000000000002 50.500000000000007 1.0000000180025095e-35 24.500000000000004 29.500000000000004 6.5000000000000009
decision_type=2 2 2 2 2 2 2
left_child=1 5 -3 4 -2 -1 -5
right_child=3 2 -4 6 -6 -7 -8
leaf_value=-0.013310109859078103 0.0026527929969831832 0.015927949753954902 -0.055877941475822521 -0.068265921112907538 -0.026305943751702962 -0.056644056670415131 -0.034574928616791643
leaf_weight=371.75781502760947 473.35154801234603 3360.6689134729095 150.90060467994772 163.29927249555476 781.71621039602906 208.03354785451666 189.92074983566999
leaf_count=2611 3177 41740 13883 4206 20915 10272 3535
internal_value=0 0.00679912 0.0127826 -0.0232121 -0.0153131 -0.0291795 -0.0507407
internal_weight=0 4091.36 3511.57 1608.29 1255.07 579.791 353.22
internal_count=100339 68506 55623 31833 24092 12883 7741
is_linear=0
shrinkage=0.102489


Tree=62
num_leaves=8
num_cat=0
split_feature=36 7 166 4 153 11 7
split_gain=111.867 84.7022 61.8306 36.6299 30.6031 18.9464 10.979
threshold=1.0000000180025095e-35 4.5000000000000009 1.0000000180025095e-35 1.5000000000000002 1.0000000180025095e-35 1.0000000180025095e-35 1.5000000000000002
decision_type=2 2 2 2 2 2 2
left_child=1 2 -1 6 -5 -3 -2
right_child=3 5 -4 4 -6 -7 -8
leaf_value=-0.0096131930781172444 0.022537965849004925 -0.024375486070954723 0.025668424902618225 0.0052693802527286207 0.03678154891167857 -0.059699723263048773 -0.031517735253571412
leaf_weight=2628.8101296485402 48.372478258097544 333.86019108258188 648.17462434922345 477.46071641822346 1066.3334141243249 340.19746011425741 159.1939607760869
leaf_count=52807 796 2249 5691 10980 12521 12082 3516
internal_value=0 -0.00944117 -0.0025912 0.0216621 0.027123 -0.042482 -0.0183231
internal_weight=0 3951.04 3276.98 1751.36 1543.79 674.058 207.566
internal_count=100642 72829 58498 27813 23501 14331 4312
is_linear=0
shrinkage=0.102489


Tree=63
num_leaves=8
num_cat=0
split_feature=7 166 10 37 158 4 88
split_gain=97.565 73.6325 65.8889 59.0289 38.5116 22.0352 14.3432
threshold=3.5000000000000004 1.0000000180025095e-35 1.0000000180025095e-35 1.0000000180025095e-35 1.0000000180025095e-35 1.5000000000000002 1.0000000180025095e-35
decision_type=2 2 2 2 2 2 2
left_child=1 3 6 -1 -3 -4 -2
right_child=2 4 5 -5 -6 -7 -8
leaf_value=0.010563441434908278 -0.046794729447005995 0.035223847662975927 -0.042066598730132958 -0.024832329084382918 0.16028151578910838 0.0037983324547718471 -0.017518749515497919
leaf_weight=2359.1592617693823 642.80895627988502 649.52432380896062 121.55350497737527 623.3420158366207 25.778214933583513 994.96084798686206 264.60453402204439
leaf_count=42692 28656 5179 854 12852 895 6887 2627
internal_value=0 0.0100868 -0.0179465 0.00311885 0.0406067 -0.00116603 -0.0384303
internal_weight=0 3657.8 2023.93 2982.5 675.303 1116.51 907.413
internal_count=100642 61618 39024 55544 6074 7741 31283
is_linear=0
shrinkage=0.102489


Tree=64
num_leaves=8
num_cat=0
split_feature=6 5 3 4 152 1 3
split_gain=109.093 69.9427 56.4005 51.3337 30.9021 23.7785 17.9618
threshold=4.5000000000000009 2.5000000000000004 27.500000000000004 7.5000000000000009 1.0000000180025095e-35 43.500000000000007 7.5000000000000009
decision_type=2 2 2 2 2 2 2
left_child=1 5 6 -3 -4 -1 -2
right_child=2 3 4 -5 -6 -7 -8
leaf_value=-0.023185152704906099 0.041889337154061387 -0.013487971282084274 0.045803306825802401 0.014655746631319902 0.010066055935689013 -0.07213509190021776 -0.023786083658356036
leaf_weight=1339.7806168324314 48.812938255723566 1354.8901615749346 768.96780055109411 1363.5752775277942 393.74059373605996 114.57966571277939 285.15721995662898
leaf_count=17667 803 26081 8544 19940 5474 16442 5640
internal_value=0 -0.0090807 0.0231529 0.000590455 0.0338294 -0.0272066 -0.0136832
internal_weight=0 4172.83 1496.68 2718.47 1162.71 1454.36 333.97
internal_count=100591 80130 20461 46021 14018 34109 6443
is_linear=0
shrinkage=0.102489


Tree=65
num_leaves=8
num_cat=0
split_feature=6 1 47 3 7 3 1
split_gain=88.7083 63.9096 57.6051 45.8242 27.3505 14.5879 11.0457
threshold=4.5000000000000009 43.500000000000007 1.0000000180025095e-35 27.500000000000004 3.5000000000000004 7.5000000000000009 51.500000000000007
decision_type=2 2 2 2 2 2 2
left_child=1 2 -1 5 -5 -2 -3
right_child=3 6 -4 4 -6 -7 -8
leaf_value=-0.014040802999538948 0.037350543807803394 -0.034375666416958862 0.012017641246222819 0.041879719114737472 0.0081037944820125159 -0.021564059698639202 -0.073831033972229593
leaf_weight=2374.9813364224974 49.343432208755985 226.0403099313844 1420.2272190251388 765.21677168994211 389.23542611044832 282.64922690740786 131.72293286432978
leaf_count=28148 803 18105 14489 9124 4894 5640 19388
internal_value=0 -0.00820648 -0.00426036 0.0209515 0.0306163 -0.0123228 -0.0495212
internal_weight=0 4152.97 3795.21 1486.44 1154.45 331.993 357.763
internal_count=100591 80130 42637 20461 14018 6443 37493
is_linear=0
shrinkage=0.102489


Tree=66
num_leaves=8
num_cat=0
split_feature=36 10 7 6 4 7 6
split_gain=83.9951 60.5607 43.2008 35.2618 30.6083 28.6453 13.7546
threshold=1.0000000180025095e-35 1.0000000180025095e-35 3.5000000000000004 1.5000000000000002 9.5000000000000018 1.5000000000000002 1.5000000000000002
decision_type=2 2 2 2 2 2 2
left_child=1 2 -1 -3 5 -2 -6
right_child=4 3 -4 -5 6 -7 -8
leaf_value=-0.010105018869145891 0.038077300434460948 -0.025294083990327079 -0.043391518796736077 0.011494108628127919 0 0.00043120249557989797 0.045568051940508024
leaf_weight=1365.0501206330955 282.06697100563906 326.29909971728921 592.14166214608122 1615.8068989235908 82.560511977644637 864.19099205022212 488.64753159345128
leaf_count=35825 3889 2537 23009 11574 1317 16080 6356
internal_value=0 -0.00753788 -0.0202632 0.00523954 0.0196492 0.00983644 0.039055
internal_weight=0 3899.3 1957.19 1942.11 1717.47 1146.26 571.208
internal_count=100587 72945 58834 14111 27642 19969 7673
is_linear=0
shrinkage=0.102489


Tree=67
num_leaves=8
num_cat=0
split_feature=5 37 1 1 152 40 47
split_gain=92.6888 62.7286 44.4715 23.8028 29.8056 14.0253 6.74671
threshold=4.5000000000000009 1.0000000180025095e-35 18.500000000000004 23.500000000000004 1.0000000180025095e-35 1.0000000180025095e-35 1.0000000180025095e-35
decision_type=2 2 2 2 2 2 2
left_child=1 2 -1 6 -5 -3 -2
right_child=3 5 -4 4 -6 -7 -8
leaf_value=0.042999694748242008 0.031679823522321106 -0.022610490788655572 -0.0037476784683343864 0.026259287921821573 -0.011997596548234984 -0.051895254961622415 0.060088303490803352
leaf_weight=227.72419454529881 253.98696359433234 625.51957377931103 3068.5847057015635 686.76857373211533 304.52842203108594 253.77555357513484 172.56402456760406
leaf_count=1543 1936 12327 60103 8780 7885 6301 1712
internal_value=0 -0.00698877 -0.000462365 0.0233202 0.0144 -0.0312795 0.0436427
internal_weight=0 4175.6 3296.31 1417.85 991.297 879.295 426.551
internal_count=100587 80274 61646 20313 16665 18628 3648
is_linear=0
shrinkage=0.102489


Tree=68
num_leaves=8
num_cat=0
split_feature=5 1 153 7 1 2 7
split_gain=110.254 76.7961 72.6749 15.1298 13.9333 6.02659 4.65006
threshold=1.5000000000000002 51.500000000000007 1.0000000180025095e-35 3.5000000000000004 24.500000000000004 19.500000000000004 1.5000000000000002
decision_type=2 2 2 2 2 2 2
left_child=3 2 -2 4 -1 -5 -3
right_child=1 6 -4 5 -6 -7 -8
leaf_value=0.00014747066118133711 -0.0096482012896834893 -0.030821597522720415 0.018113282494352172 -0.022056563563685471 -0.032977341546558472 -0.057098091225347855 -0.077952608137413226
leaf_weight=195.92626620549709 1465.0998513040831 43.420206203823909 3025.7337229063269 81.912465400760993 377.53328733111266 265.12768987123854 104.71554351074155
leaf_count=1285 29920 3562 32526 1625 10197 6383 15096
internal_value=0 0.00660528 0.00903257 -0.0321881 -0.021515 -0.049301 -0.0654278
internal_weight=0 4638.97 4490.83 920.5 573.46 347.04 148.136
internal_count=100594 81104 62446 19490 11482 8008 18658
is_linear=0
shrinkage=0.102489


Tree=69
num_leaves=8
num_cat=0
split_feature=5 40 6 4 7 6 0
split_gain=90.0009 66.8437 56.2034 24.9627 12.7182 12.158 10.5002
threshold=1.5000000000000002 1.0000000180025095e-35 1.5000000000000002 5.5000000000000009 3.5000000000000004 1.5000000000000002 119.50000000000001
decision_type=2 2 2 2 2 2 2
left_child=4 2 -2 -3 5 -1 -6
right_child=1 3 -4 -5 6 -7 -8
leaf_value=-0.057529826262298037 -0.019425536698767187 -0.033619906848656185 0.018940242111171651 -0.0033810322541926213 -0.070183606992622341 -0.013185021761021171 -0.030576988960532205
leaf_weight=76.053635739721358 461.76987439661752 441.00428387173451 2875.3066661902703 840.86020978854503 120.21707834256813 492.6119929512497 220.60856282722671
leaf_count=2268 10153 11226 45469 14256 2346 9214 5662
internal_value=0 0.00593581 0.0135914 -0.0139021 -0.0293026 -0.0194791 -0.0451786
internal_weight=0 4618.94 3337.08 1281.86 909.491 568.666 340.826
internal_count=100594 81104 55622 25482 19490 11482 8008
is_linear=0
shrinkage=0.102489


Tree=70
num_leaves=8
num_cat=0
split_feature=5 153 6 4 1 153 1
split_gain=88.919 57.634 40.7699 35.7457 31.6978 25.078 13.5708
threshold=4.5000000000000009 1.0000000180025095e-35 4.5000000000000009 8.5000000000000018 37.500000000000007 1.0000000180025095e-35 43.500000000000007
decision_type=2 2 2 2 2 2 2
left_child=1 4 -3 6 -1 -5 -2
right_child=3 2 -4 5 -6 -7 -8
leaf_value=-0.018437039384992041 0.013861437732234048 -0.0061476231193922648 0.021922474062370283 0.01041642980110531 -0.066346006481944955 0.056947965870097303 -0.025857428226101997
leaf_weight=1161.1335750131402 702.38890808098949 2047.1305987907108 737.10760061256588 185.74180462863296 167.39381430682261 394.42031136993319 100.2660747510381
leaf_count=13827 6792 29541 8499 3017 28405 4871 5443
internal_value=0 -0.00709189 0.00125614 0.0229309 -0.0246423 0.0423177 0.00871745
internal_weight=0 4112.77 2784.24 1382.82 1328.53 580.162 802.655
internal_count=100395 80272 38040 20123 42232 7888 12235
is_linear=0
shrinkage=0.102489


Tree=71
num_leaves=8
num_cat=0
split_feature=5 152 1 1 3 40 3
split_gain=72.2315 47.5575 37.0718 28.9144 25.9367 17.067 10.5862
threshold=4.5000000000000009 1.0000000180025095e-35 51.500000000000007 37.500000000000007 26.500000000000004 1.0000000180025095e-35 6.5000000000000009
decision_type=2 2 2 2 2 2 2
left_child=1 2 -1 -3 6 -6 -2
right_child=4 3 -4 -5 5 -7 -8
leaf_value=0.0032587591927419252 0.036127295600712428 -0.016709626783685896 -0.065509886530816394 -0.063785163261931524 0.035560768963961993 0.0062661298428637914 -0.016304849038099981
leaf_weight=2698.7999035946559 46.239384333719499 1150.6605317385402 82.902488431194797 156.91331264656037 802.62116909888573 296.06445258948952 230.65725196560379
leaf_count=29298 812 13827 8742 28405 10177 3968 5166
internal_value=0 -0.00641841 0.00112636 -0.0225271 0.0207134 0.0277879 -0.00697705
internal_weight=0 4089.28 2781.7 1307.57 1375.58 1098.69 276.897
internal_count=100395 80272 38040 42232 20123 14145 5978
is_linear=0
shrinkage=0.102489


Tree=72
num_leaves=8
num_cat=0
split_feature=5 3 4 4 10 152 1
split_gain=70.2443 46.7841 38.1198 29.8868 27.2539 15.0539 11.1534
threshold=3.5000000000000004 27.500000000000004 5.5000000000000009 6.5000000000000009 1.0000000180025095e-35 1.0000000180025095e-35 31.500000000000004
decision_type=2 2 2 2 2 2 2
left_child=2 5 6 -3 -4 -2 -1
right_child=1 3 4 -5 -6 -7 -8
leaf_value=-0.02065577508556668 -0.004963719346632544 0.0043329302235300829 -0.016298420846086629 0.029575749527605073 0.0081269346612736788 -0.045136433430852219 -0.045287747091824725
leaf_weight=702.72891400521621 367.75108684715815 885.36442377185449 892.76395086315461 1142.9104508556193 1027.7353037782013 135.82873319473583 287.7892333046766
leaf_count=5398 5999 12664 26735 14329 7275 6880 21048
internal_value=0 0.0116602 -0.0116715 0.0186239 -0.00317764 -0.016142 -0.0279946
internal_weight=0 2531.85 2911.02 2028.27 1920.5 503.58 990.518
internal_count=100328 39872 60456 26993 34010 12879 26446
is_linear=0
shrinkage=0.102489


Tree=73
num_leaves=8
num_cat=0
split_feature=47 37 7 7 3 36 154
split_gain=60.1155 38.2584 32.5503 26.9032 25.8008 10.7902 10.4198
threshold=1.0000000180025095e-35 1.0000000180025095e-35 1.5000000000000002 1.5000000000000002 23.500000000000004 1.0000000180025095e-35 1.0000000180025095e-35
decision_type=2 2 2 2 2 2 2
left_child=1 2 -1 5 -5 -2 -3
right_child=3 6 -4 4 -6 -7 -8
leaf_value=0.016478817144790103 0.022602808276304908 -0.01680298626820776 -0.009951794540223725 -0.024193603518123254 0.012017657196373295 0.055973773686752652 -0.042583019319922012
leaf_weight=642.78617518313695 338.15149772935547 339.49709289649036 2012.03700614837 241.81980470078997 1315.3605570693035 160.90527349268086 365.59588739392348
leaf_count=9999 4932 7784 41524 7702 18325 2044 8018
internal_value=0 -0.00919531 -0.00350521 0.013042 0.00630311 0.0337509 -0.0304009
internal_weight=0 3359.92 2654.82 2056.24 1557.18 499.057 705.093
internal_count=100328 67325 51523 33003 26027 6976 15802
is_linear=0
shrinkage=0.102489


Tree=74
num_leaves=8
num_cat=0
split_feature=7 1 6 1 4 88 0
split_gain=67.0673 57.4917 53.6673 26.9824 10.2863 8.79057 2.97541
threshold=4.5000000000000009 51.500000000000007 1.5000000000000002 18.500000000000004 7.5000000000000009 1.0000000180025095e-35 39.500000000000007
decision_type=2 2 2 2 2 2 2
left_child=1 2 -1 6 -5 -3 -2
right_child=3 5 -4 4 -6 -7 -8
leaf_value=-0.021524630124218114 -0.014239801328538323 -0.066321710845296922 0.011287622363043377 -0.04418279387986828 -0.019880566150641758 0.044128167306671393 0.034752440341151859
leaf_weight=603.930812253966 11.179381711408494 130.12456243287306 3785.8820012791548 396.35740046983119 391.41748648649082 5.5456352398032314 74.985643479973078
leaf_count=11338 79 18560 50943 11253 7596 467 505
internal_value=0 0.00467798 0.00674179 -0.0263023 -0.0323213 -0.0604724 0.0270224
internal_weight=0 4525.48 4389.81 873.94 787.775 135.67 86.165
internal_count=100741 81308 62281 19433 18849 19027 584
is_linear=0
shrinkage=0.102489


Tree=75
num_leaves=8
num_cat=0
split_feature=4 5 88 1 1 152 3
split_gain=58.8716 49.1535 33.0726 21.3853 17.0376 14.7365 4.69912
threshold=2.5000000000000004 2.5000000000000004 1.0000000180025095e-35 21.500000000000004 46.500000000000007 1.0000000180025095e-35 7.5000000000000009
decision_type=2 2 2 2 2 2 2
left_child=4 3 -3 -2 5 -1 -6
right_child=1 2 -4 -5 6 -7 -8
leaf_value=-0.0098148517844928659 0.011878744195486252 0.0069054710404897685 0.03415859457574405 -0.016800068392534111 0.020520503071793431 -0.038377184949777397 -0.078220795479879271
leaf_weight=599.88767035584897 349.3728159237653 2304.8842590920394 590.9536098795943 1178.2959112275857 2.9035168638220048 287.77921899151988 66.509147756558377
leaf_count=6084 2307 40067 5626 29555 420 7348 9334
internal_value=0 0.00466254 0.0125229 -0.0101655 -0.0233452 -0.0192579 -0.0721593
internal_weight=0 4423.51 2895.84 1527.67 957.08 887.667 69.4127
internal_count=100741 77555 45693 31862 23186 13432 9754
is_linear=0
shrinkage=0.102489


Tree=76
num_leaves=8
num_cat=0
split_feature=6 4 10 1 7 153 153
split_gain=55.6073 49.2002 37.011 35.2683 22.2287 17.9641 10.3436
threshold=2.5000000000000004 9.5000000000000018 1.0000000180025095e-35 29.500000000000004 3.5000000000000004 1.0000000180025095e-35 1.0000000180025095e-35
decision_type=2 2 2 2 2 2 2
left_child=3 2 -2 5 -3 -1 -5
right_child=1 4 -4 6 -6 -7 -8
leaf_value=-0.025181300007819353 -0.013583386230019926 0.032346470324783119 0.011378441017120173 -0.060901874136203696 0.0032535349524393472 0.0034289046650873949 -0.028243074279212757
leaf_weight=334.40034321323037 1369.1700248402194 831.31911230413243 1140.4440593579784 153.98078217945294 425.79805033025332 716.84789764881134 394.50683333352208
leaf_count=3988 35754 11151 8263 18111 6137 3713 13554
internal_value=0 0.0060566 -0.00219795 -0.0167364 0.0225967 -0.00560192 -0.0377888
internal_weight=0 3766.73 2509.61 1599.74 1257.12 1051.25 548.488
internal_count=100671 61305 44017 39366 17288 7701 31665
is_linear=0
shrinkage=0.102489


Tree=77
num_leaves=8
num_cat=0
split_feature=40 152 37 11 4 154 3
split_gain=55.6078 42.7161 30.3207 29.4056 15.6753 10.3944 5.26699
threshold=1.0000000180025095e-35 1.0000000180025095e-35 1.0000000180025095e-35 1.0000000180025095e-35 4.5000000000000009 1.0000000180025095e-35 26.500000000000004
decision_type=2 2 2 2 2 2 2
left_child=1 2 -1 -3 6 -6 -2
right_child=4 3 -4 -5 5 -7 -8
leaf_value=0.018862240729077353 -0.06073723910598311 0.0040209422061452324 -0.0083340484306074127 -0.027830389931763424 -0.00022033876967246909 -0.020643435819072093 -0.02814797295584014
leaf_weight=2080.9881553181913 71.50045038521057 687.22885830327868 535.57962485239841 537.42762200912694 529.82528063456994 536.79463303589728 355.99439196463209
leaf_count=27525 4465 4925 7651 28643 9996 10060 7406
internal_value=0 0.00584495 0.0132531 -0.00989296 -0.0174418 -0.0106165 -0.0340985
internal_weight=0 3841.22 2616.57 1224.66 1494.11 1066.62 427.495
internal_count=100671 68744 35176 33568 31927 20056 11871
is_linear=0
shrinkage=0.102489


Tree=78
num_leaves=8
num_cat=0
split_feature=47 4 154 2 153 153 3
split_gain=50.8273 34.2362 31.2887 19.3861 17.1407 16.3859 13.8802
threshold=1.0000000180025095e-35 9.5000000000000018 1.0000000180025095e-35 26.500000000000004 1.0000000180025095e-35 1.0000000180025095e-35 27.500000000000004
decision_type=2 2 2 2 2 2 2
left_child=2 5 4 -4 -1 -2 -3
right_child=1 6 3 -5 -6 -7 -8
leaf_value=-0.013484242219489517 -0.013096741094954921 0.00011311998498963459 0 -0.024282133670907417 0.0093841842651147221 0.011045912085197252 0.038214566127085826
leaf_weight=490.59924908506218 432.79676297842525 128.86896974605042 478.12042326596566 1222.3235356206424 1131.0819811094552 907.65655745519325 564.31955293775536
leaf_count=17408 11395 2656 8895 25232 16051 12089 7026
internal_value=0 0.0128288 -0.00773506 -0.0174475 0.00239295 0.0031645 0.0313034
internal_weight=0 2033.64 3322.13 1700.44 1621.68 1340.45 693.189
internal_count=100752 33166 67586 34127 33459 23484 9682
is_linear=0
shrinkage=0.102489


Tree=79
num_leaves=8
num_cat=0
split_feature=5 7 152 7 4 36 36
split_gain=64.4927 47.4748 34.2822 17.2244 10.6219 10.1382 8.57194
threshold=1.5000000000000002 4.5000000000000009 1.0000000180025095e-35 2.5000000000000004 3.5000000000000004 1.0000000180025095e-35 1.0000000180025095e-35
decision_type=2 2 2 2 2 2 2
left_child=3 2 -2 4 -1 -3 -5
right_child=1 5 -4 6 -6 -7 -8
leaf_value=-0.040326266082774911 0.016337930852180885 -0.02635724114773394 -0.0046700900878563567 -0.048584976197685405 0 0 -0.017722423417481821
leaf_weight=85.774398622219451 2566.5762738713529 524.25106762285577 1184.7806252748123 318.1249837615178 295.35220186237711 210.07987378886901 156.8328958201455
leaf_count=2412 33884 11633 31848 8139 5403 4065 3368
internal_value=0 0.00499144 0.00967595 -0.0256749 -0.00901368 -0.018758 -0.0387308
internal_weight=0 4485.69 3751.36 856.084 381.127 734.331 474.958
internal_count=100752 81430 65732 19322 7815 15698 11507
is_linear=0
shrinkage=0.102489


Tree=80
num_leaves=8
num_cat=0
split_feature=4 1 7 10 5 40 0
split_gain=54.0832 38.788 38.0623 16.4281 12.2264 8.80911 7.66218
threshold=3.5000000000000004 18.500000000000004 3.5000000000000004 1.0000000180025095e-35 4.5000000000000009 1.0000000180025095e-35 37.500000000000007
decision_type=2 2 2 2 2 2 2
left_child=3 6 -3 4 -1 -5 -2
right_child=1 2 -4 5 -6 -7 -8
leaf_value=-0.041151272437028187 -0.006232016358643038 0.0082795969238832427 -0.013488499773014319 0.00013626244159220018 -0.010008676544774079 -0.027770896496978587 0.04554684942011019
leaf_weight=458.63807001156965 29.470592042431235 2491.9990736402106 1272.2363909214037 404.04921920970082 201.98967888602056 162.08815254736692 257.93952305940911
leaf_count=21193 254 42323 25901 2958 4629 1234 2033
internal_value=0 0.00370007 0.000891189 -0.0208364 -0.0318467 -0.00773673 0.0398667
internal_weight=0 4051.65 3764.24 1226.77 660.628 566.137 287.41
internal_count=100525 70511 68224 30014 25822 4192 2287
is_linear=0
shrinkage=0.102489


Tree=81
num_leaves=8
num_cat=0
split_feature=5 3 3 4 36 1 166
split_gain=46.5476 43.9523 39.4619 23.1546 12.8853 11.4706 8.92754
threshold=4.5000000000000009 55.500000000000007 26.500000000000004 8.5000000000000018 1.0000000180025095e-35 48.500000000000007 1.0000000180025095e-35
decision_type=2 2 2 2 2 2 2
left_child=1 2 -1 5 -3 -2 -5
right_child=3 4 -4 6 -6 -7 -8
leaf_value=-0.027166284954859923 0.0065189268360684414 -0.052040470400459546 0.0012597212670354462 0.024269909365870285 -0.011533722183290218 -0.04431377709047668 0.059994147431306162
leaf_weight=618.97545987955527 723.27461508149281 273.82693269749871 2917.5233952269773 457.85195119353011 130.22558382747229 47.568512283149175 94.86804316053167
leaf_count=27005 8296 12098 37030 6749 4246 3963 1138
internal_value=0 -0.00739988 -0.0036981 0.0147924 -0.0393646 0.00314036 0.0307835
internal_weight=0 3940.55 3536.5 1323.56 404.053 770.843 552.72
internal_count=100525 80379 64035 20146 16344 12259 7887
is_linear=0
shrinkage=0.102489


Tree=82
num_leaves=7
num_cat=0
split_feature=1 7 168 10 47 76
split_gain=48.9048 46.6199 31.1733 29.9804 2.50438 3.18785
threshold=51.500000000000007 3.5000000000000004 1.0000000180025095e-35 1.0000000180025095e-35 1.0000000180025095e-35 1.0000000180025095e-35
decision_type=2 2 2 2 2 2
left_child=1 2 -1 -3 -2 -6
right_child=4 3 -4 -5 5 -7
leaf_value=0.0052233089781574191 -0.07362470072838774 -0.02830023832050969 0.046855488440212291 -0.0013835023424267916 -0.042996413773319295 0.053165854528871279
leaf_weight=3110.2612213829998 83.143332377367187 750.48713827593019 200.30679094686639 1050.5371267404407 56.077031329972669 1.2612511020852242
leaf_count=43928 16541 22433 3181 7696 6902 131
internal_value=0 0.000562748 0.00780055 -0.0126769 -0.0603045 -0.0374033
internal_weight=0 5111.59 3310.57 1801.02 140.482 57.3383
internal_count=100812 77238 47109 30129 23574 7033
is_linear=0
shrinkage=0.102489


Tree=83
num_leaves=8
num_cat=0
split_feature=154 3 3 3 5 37 0
split_gain=41.7209 25.2114 30.7677 20.9044 20.4139 21.1442 9.75029
threshold=1.0000000180025095e-35 26.500000000000004 55.500000000000007 3.5000000000000004 2.5000000000000004 1.0000000180025095e-35 88.500000000000014
decision_type=2 2 2 2 2 2 2
left_child=1 3 -3 -1 6 -6 -2
right_child=4 2 -4 -5 5 -7 -8
leaf_value=0.036015353768072036 -0.039332383086638813 0.017895914583116845 -0.01767666782431776 -0.023619569157462151 0.0026567985964754295 -0.024490989712701826 -0.015368871452865685
leaf_weight=70.9064489157754 259.24202057387447 1838.9947269967524 292.00195887580048 373.31329252559226 1348.6831334730959 384.38531640695874 670.97935587289976
leaf_count=2077 4929 23405 10188 14472 22426 6990 16325
internal_value=0 0.00830536 0.0129602 -0.013747 -0.00997882 -0.00332464 -0.0222296
internal_weight=0 2575.22 2131 444.22 2663.29 1733.07 930.221
internal_count=100812 50142 33593 16549 50670 29416 21254
is_linear=0
shrinkage=0.102489


Tree=84
num_leaves=8
num_cat=0
split_feature=6 40 7 47 7 10 7
split_gain=68.7133 34.6511 27.8211 23.937 12.162 12.0819 7.80587
threshold=4.5000000000000009 1.0000000180025095e-35 1.5000000000000002 1.0000000180025095e-35 3.5000000000000004 1.0000000180025095e-35 4.5000000000000009
decision_type=2 2 2 2 2 2 2
left_child=1 2 -1 5 -5 -2 -3
right_child=3 6 -4 4 -6 -7 -8
leaf_value=0.018340868274928878 -0.00026488360637028698 -0.018140615294730517 -0.0062193405712216848 0.047384301178233446 0.013511723799413762 0.024905417578599962 -0.042312719922950909
leaf_weight=625.40427925082622 535.59185306646395 896.07877680804813 2120.8106006808812 367.28798560425639 176.56541088002268 310.44369228836149 178.15467303083278
leaf_count=10303 10505 20529 43758 4815 2517 2618 5241
internal_value=0 -0.00672718 -0.000578619 0.0198681 0.0366693 0.00888315 -0.0223177
internal_weight=0 3820.45 2746.21 1389.89 543.853 846.036 1074.23
internal_count=100286 79831 54061 20455 7332 13123 25770
is_linear=0
shrinkage=0.102489


Tree=85
num_leaves=8
num_cat=0
split_feature=6 3 40 5 3 3 5
split_gain=55.6514 50.2354 28.2994 22.3021 16.7328 7.53732 6.81752
threshold=4.5000000000000009 55.500000000000007 1.0000000180025095e-35 4.5000000000000009 26.500000000000004 28.500000000000004 4.5000000000000009
decision_type=2 2 2 2 2 2 2
left_child=1 2 -1 4 -2 -5 -3
right_child=3 6 -4 5 -6 -7 -8
leaf_value=0.0035969621291267119 -0.015323394870345909 -0.052475140673350872 -0.017017395362813242 0.013069567661139064 0.01682887062924205 0.049852288086702834 -0.020777753923962031
leaf_weight=2476.8562620515004 208.34019205451477 240.5715822505299 970.4533635986736 89.360203943448141 835.85884570248891 252.33002913394012 125.34665618487634
leaf_count=42990 5006 13276 20489 1280 10763 3406 3076
internal_value=0 -0.00605747 -0.00218202 0.017908 0.0102961 0.04067 -0.0420736
internal_weight=0 3813.23 3447.31 1385.89 1044.2 341.69 365.918
internal_count=100286 79831 63479 20455 15769 4686 16352
is_linear=0
shrinkage=0.102489


Tree=86
num_leaves=8
num_cat=0
split_feature=1 7 4 36 88 3 2
split_gain=46.0453 38.3551 32.2736 11.7597 11.6996 7.33179 4.61851
threshold=47.500000000000007 1.5000000000000002 7.5000000000000009 1.0000000180025095e-35 1.0000000180025095e-35 3.5000000000000004 69.500000000000014
decision_type=2 2 2 2 2 2 2
left_child=1 3 -3 -1 5 -2 -6
right_child=4 2 -4 -5 6 -7 -8
leaf_value=0.012231819665435973 0.020223287289703271 -0.011036579267557311 0.0078968254254746101 0.034576938453910064 0 -0.048998891704910806 0.10060469670844807
leaf_weight=795.55114450643305 13.905191872967405 1904.0611191224307 1871.1911976013216 377.51154932193458 8.6873223169241083 246.6873508048011 5.7468225064221761
leaf_count=9153 1659 29129 23087 4155 651 32292 365
internal_value=0 0.00338123 -0.00162515 0.0195587 -0.0395476 -0.0447791 0.0424968
internal_weight=0 4948.32 3775.25 1173.06 275.027 260.593 14.4341
internal_count=100491 65524 52216 13308 34967 33951 1016
is_linear=0
shrinkage=0.102489


Tree=87
num_leaves=7
num_cat=0
split_feature=1 152 4 0 0 88
split_gain=40.0289 39.1948 30.6368 19.8648 3.63237 1.20754
threshold=51.500000000000007 1.0000000180025095e-35 9.5000000000000018 70.500000000000014 395.50000000000006 1.0000000180025095e-35
decision_type=2 2 2 2 2 2
left_child=1 2 -1 -3 5 -2
right_child=4 3 -4 -5 -6 -7
leaf_value=0.0016198742548659095 -0.062668758058956539 -0.033272760859232038 0.022006167719039064 -0.0048932103921172834 0 0
leaf_weight=2297.6771400341531 111.73413108760724 327.31241617840715 1176.0998155744746 1284.163533902436 7.8977546310052267 5.4085558662191024
leaf_count=26641 21429 6824 12447 31191 1419 540
internal_value=0 0.00241682 0.00856089 -0.0107565 -0.0558183 -0.0603537
internal_weight=0 5085.25 3473.78 1611.48 125.04 117.143
internal_count=100491 77103 39088 38015 23388 21969
is_linear=0
shrinkage=0.102489


Tree=88
num_leaves=8
num_cat=0
split_feature=3 3 5 3 6 3 6
split_gain=44.2647 38.0033 30.5157 20.4356 18.3501 13.2553 10.0333
threshold=26.500000000000004 55.500000000000007 2.5000000000000004 3.5000000000000004 4.5000000000000009 22.500000000000004 3.5000000000000004
decision_type=2 2 2 2 2 2 2
left_child=3 2 -2 6 -3 -5 -1
right_child=1 4 -4 5 -6 -7 -8
leaf_value=-0.017695063672836985 -0.0046335274616262963 -0.03496612036420628 0.014485133755190558 -0.023388722503980015 0.0030111326022434735 -0.069962075791971182 0.03762448282190739
leaf_weight=54.905791756289545 1369.2161055246834 357.26470964634791 2399.939739557507 656.60183846217114 204.63599289720878 73.444626477314159 79.914465795503929
leaf_count=2506 18695 16412 28697 26005 3812 3091 1621
internal_value=0 0.0037835 0.00751316 -0.0215849 -0.0209861 -0.0283943 0.014394
internal_weight=0 4331.06 3769.16 864.867 561.901 730.046 134.82
internal_count=100839 67616 47392 33223 20224 29096 4127
is_linear=0
shrinkage=0.102489


Tree=89
num_leaves=8
num_cat=0
split_feature=1 7 168 1 7 10 2
split_gain=47.1441 31.9832 29.6214 17.4997 15.2469 16.3601 2.71084
threshold=23.500000000000004 3.5000000000000004 1.0000000180025095e-35 29.500000000000004 1.5000000000000002 1.0000000180025095e-35 3.5000000000000004
decision_type=2 2 2 2 2 2 2
left_child=4 2 -2 -3 6 -6 -1
right_child=1 3 -4 -5 5 -7 -8
leaf_value=-0.0028711275377893103 -0.0038373811531433491 -0.008351480531736271 0.036770998829198584 -0.034341485516850817 -0.0038835673021495091 0.019338398235941235 0.035466783193995453
leaf_weight=14.926997875329105 2244.9865723980474 563.84978188062087 203.94069282652345 552.70601407863433 571.19980200566351 699.77768798451871 324.79528696183115
leaf_count=119 49894 4464 4160 29560 4088 5558 2996
internal_value=0 -0.00698824 -0.000385675 -0.021349 0.0141257 0.00882932 0.0334666
internal_weight=0 3565.48 2448.93 1116.56 1610.7 1270.98 339.722
internal_count=100839 88078 54054 34024 12761 9646 3115
is_linear=0
shrinkage=0.102489


Tree=90
num_leaves=8
num_cat=0
split_feature=6 36 4 1 1 152 2
split_gain=54.015 44.2402 22.3362 12.5881 7.69332 6.12941 2.90988
threshold=1.5000000000000002 1.0000000180025095e-35 3.5000000000000004 53.500000000000007 29.500000000000004 1.0000000180025095e-35 30.500000000000004
decision_type=2 2 2 2 2 2 2
left_child=4 2 -2 -3 5 -1 -6
right_child=1 3 -4 -5 6 -7 -8
leaf_value=-0.010534324313621852 -0.018850848389974507 0.020549457687752466 0.0019260503783922502 -0.053243463308574344 -0.019657284680877279 -0.036436168392010936 -0.050247180515843086
leaf_weight=338.56331012398005 703.62395289092092 1361.2224828302278 2338.1817986987298 22.114745880302507 61.78261276462581 145.25530080799945 161.82434100093087
leaf_count=1754 17708 19348 41126 3467 4323 2168 10678
internal_value=0 0.00402768 -0.00285446 0.0192194 -0.0264336 -0.0186444 -0.0425089
internal_weight=0 4425.14 3041.81 1383.34 707.426 483.819 223.607
internal_count=100572 81649 58834 22815 18923 3922 15001
is_linear=0
shrinkage=0.102489


Tree=91
num_leaves=8
num_cat=0
split_feature=36 155 3 2 40 152 166
split_gain=42.8301 23.3556 18.3473 14.0426 11.2763 13.7787 3.10443
threshold=1.0000000180025095e-35 1.0000000180025095e-35 55.500000000000007 26.500000000000004 1.0000000180025095e-35 1.0000000180025095e-35 1.0000000180025095e-35
decision_type=2 2 2 2 2 2 2
left_child=1 3 -3 -1 5 -2 -6
right_child=4 2 -4 -5 6 -7 -8
leaf_value=-0.00015870957099109844 0.026533319804159371 0.0056869378210627434 -0.028882616139235404 -0.020344010167556714 -0.0048571083555345894 0.0021807098387984056 0.01637308306581884
leaf_weight=517.85263637936441 797.62850037252065 1538.6922793441918 177.70057937028469 1289.03988363588 342.51099848025478 365.92478347470751 89.393907299032435
